digraph Tree {
node [shape=box, style="filled, rounded", color="black", fontname=helvetica] ;
edge [fontname=helvetica] ;
0 [label="Month <= 6.5\ngini = 0.25\nsamples = 4520\nvalue = [6194, 1065]\nclass = 0", fillcolor="#e9975b"] ;
1 [label="ProductRelated_Duration <= 1788.5\ngini = 0.2\nsamples = 3129\nvalue = [4425, 574]\nclass = 0", fillcolor="#e89153"] ;
0 -> 1 [labeldistance=2.5, labelangle=45, headlabel="True"] ;
2 [label="ExitRates <= 3177.5\ngini = 0.06\nsamples = 1221\nvalue = [1877, 60]\nclass = 0", fillcolor="#e6853f"] ;
1 -> 2 ;
3 [label="PageValues <= 694.0\ngini = 0.1\nsamples = 741\nvalue = [1121, 60]\nclass = 0", fillcolor="#e68844"] ;
2 -> 3 ;
4 [label="Administrative_Duration <= 217.5\ngini = 0.04\nsamples = 713\nvalue = [1110, 23]\nclass = 0", fillcolor="#e6843d"] ;
3 -> 4 ;
5 [label="VisitorType <= 0.5\ngini = 0.01\nsamples = 519\nvalue = [807, 6]\nclass = 0", fillcolor="#e5823a"] ;
4 -> 5 ;
6 [label="BounceRates <= 923.0\ngini = 0.09\nsamples = 57\nvalue = [83, 4]\nclass = 0", fillcolor="#e68743"] ;
5 -> 6 ;
7 [label="ExitRates <= 925.5\ngini = 0.05\nsamples = 53\nvalue = [78, 2]\nclass = 0", fillcolor="#e6843e"] ;
6 -> 7 ;
8 [label="ProductRelated <= 7.0\ngini = 0.19\nsamples = 12\nvalue = [17, 2]\nclass = 0", fillcolor="#e89050"] ;
7 -> 8 ;
9 [label="Month <= 4.0\ngini = 0.38\nsamples = 4\nvalue = [6, 2]\nclass = 0", fillcolor="#eeab7b"] ;
8 -> 9 ;
10 [label="gini = 0.0\nsamples = 1\nvalue = [0, 2]\nclass = 1", fillcolor="#399de5"] ;
9 -> 10 ;
11 [label="gini = 0.0\nsamples = 3\nvalue = [6, 0]\nclass = 0", fillcolor="#e58139"] ;
9 -> 11 ;
12 [label="gini = 0.0\nsamples = 8\nvalue = [11, 0]\nclass = 0", fillcolor="#e58139"] ;
8 -> 12 ;
13 [label="gini = 0.0\nsamples = 41\nvalue = [61, 0]\nclass = 0", fillcolor="#e58139"] ;
7 -> 13 ;
14 [label="ProductRelated <= 5.5\ngini = 0.41\nsamples = 4\nvalue = [5, 2]\nclass = 0", fillcolor="#efb388"] ;
6 -> 14 ;
15 [label="gini = 0.0\nsamples = 3\nvalue = [5, 0]\nclass = 0", fillcolor="#e58139"] ;
14 -> 15 ;
16 [label="gini = 0.0\nsamples = 1\nvalue = [0, 2]\nclass = 1", fillcolor="#399de5"] ;
14 -> 16 ;
17 [label="ExitRates <= 3151.5\ngini = 0.01\nsamples = 462\nvalue = [724, 2]\nclass = 0", fillcolor="#e5813a"] ;
5 -> 17 ;
18 [label="PageValues <= 93.5\ngini = 0.0\nsamples = 458\nvalue = [719, 1]\nclass = 0", fillcolor="#e58139"] ;
17 -> 18 ;
19 [label="gini = 0.0\nsamples = 455\nvalue = [715, 0]\nclass = 0", fillcolor="#e58139"] ;
18 -> 19 ;
20 [label="Region <= 2.5\ngini = 0.32\nsamples = 3\nvalue = [4, 1]\nclass = 0", fillcolor="#eca06a"] ;
18 -> 20 ;
21 [label="gini = 0.0\nsamples = 2\nvalue = [4, 0]\nclass = 0", fillcolor="#e58139"] ;
20 -> 21 ;
22 [label="gini = 0.0\nsamples = 1\nvalue = [0, 1]\nclass = 1", fillcolor="#399de5"] ;
20 -> 22 ;
23 [label="Region <= 1.0\ngini = 0.28\nsamples = 4\nvalue = [5, 1]\nclass = 0", fillcolor="#ea9a61"] ;
17 -> 23 ;
24 [label="gini = 0.0\nsamples = 1\nvalue = [0, 1]\nclass = 1", fillcolor="#399de5"] ;
23 -> 24 ;
25 [label="gini = 0.0\nsamples = 3\nvalue = [5, 0]\nclass = 0", fillcolor="#e58139"] ;
23 -> 25 ;
26 [label="ExitRates <= 3173.0\ngini = 0.1\nsamples = 194\nvalue = [303, 17]\nclass = 0", fillcolor="#e68844"] ;
4 -> 26 ;
27 [label="Browser <= 7.5\ngini = 0.08\nsamples = 193\nvalue = [303, 14]\nclass = 0", fillcolor="#e68742"] ;
26 -> 27 ;
28 [label="Administrative_Duration <= 232.0\ngini = 0.06\nsamples = 186\nvalue = [296, 10]\nclass = 0", fillcolor="#e68540"] ;
27 -> 28 ;
29 [label="gini = 0.0\nsamples = 1\nvalue = [0, 1]\nclass = 1", fillcolor="#399de5"] ;
28 -> 29 ;
30 [label="Informational_Duration <= 708.5\ngini = 0.06\nsamples = 185\nvalue = [296, 9]\nclass = 0", fillcolor="#e6853f"] ;
28 -> 30 ;
31 [label="TrafficType <= 1.5\ngini = 0.05\nsamples = 184\nvalue = [296, 8]\nclass = 0", fillcolor="#e6843e"] ;
30 -> 31 ;
32 [label="gini = 0.0\nsamples = 94\nvalue = [153, 0]\nclass = 0", fillcolor="#e58139"] ;
31 -> 32 ;
33 [label="Month <= 4.5\ngini = 0.1\nsamples = 90\nvalue = [143, 8]\nclass = 0", fillcolor="#e68844"] ;
31 -> 33 ;
34 [label="BounceRates <= 589.5\ngini = 0.22\nsamples = 41\nvalue = [57, 8]\nclass = 0", fillcolor="#e99355"] ;
33 -> 34 ;
35 [label="ExitRates <= 2859.0\ngini = 0.14\nsamples = 33\nvalue = [49, 4]\nclass = 0", fillcolor="#e78b49"] ;
34 -> 35 ;
36 [label="Administrative_Duration <= 925.5\ngini = 0.11\nsamples = 32\nvalue = [49, 3]\nclass = 0", fillcolor="#e78945"] ;
35 -> 36 ;
37 [label="ExitRates <= 384.0\ngini = 0.18\nsamples = 20\nvalue = [27, 3]\nclass = 0", fillcolor="#e88f4f"] ;
36 -> 37 ;
38 [label="ProductRelated <= 7.5\ngini = 0.5\nsamples = 2\nvalue = [1, 1]\nclass = 0", fillcolor="#ffffff"] ;
37 -> 38 ;
39 [label="gini = 0.0\nsamples = 1\nvalue = [1, 0]\nclass = 0", fillcolor="#e58139"] ;
38 -> 39 ;
40 [label="gini = 0.0\nsamples = 1\nvalue = [0, 1]\nclass = 1", fillcolor="#399de5"] ;
38 -> 40 ;
41 [label="ProductRelated <= 8.0\ngini = 0.13\nsamples = 18\nvalue = [26, 2]\nclass = 0", fillcolor="#e78b48"] ;
37 -> 41 ;
42 [label="TrafficType <= 2.5\ngini = 0.23\nsamples = 9\nvalue = [13, 2]\nclass = 0", fillcolor="#e99457"] ;
41 -> 42 ;
43 [label="gini = 0.0\nsamples = 1\nvalue = [0, 1]\nclass = 1", fillcolor="#399de5"] ;
42 -> 43 ;
44 [label="ProductRelated_Duration <= 740.0\ngini = 0.13\nsamples = 8\nvalue = [13, 1]\nclass = 0", fillcolor="#e78b48"] ;
42 -> 44 ;
45 [label="gini = 0.0\nsamples = 4\nvalue = [9, 0]\nclass = 0", fillcolor="#e58139"] ;
44 -> 45 ;
46 [label="ProductRelated_Duration <= 969.5\ngini = 0.32\nsamples = 4\nvalue = [4, 1]\nclass = 0", fillcolor="#eca06a"] ;
44 -> 46 ;
47 [label="gini = 0.0\nsamples = 1\nvalue = [0, 1]\nclass = 1", fillcolor="#399de5"] ;
46 -> 47 ;
48 [label="gini = 0.0\nsamples = 3\nvalue = [4, 0]\nclass = 0", fillcolor="#e58139"] ;
46 -> 48 ;
49 [label="gini = 0.0\nsamples = 9\nvalue = [13, 0]\nclass = 0", fillcolor="#e58139"] ;
41 -> 49 ;
50 [label="gini = 0.0\nsamples = 12\nvalue = [22, 0]\nclass = 0", fillcolor="#e58139"] ;
36 -> 50 ;
51 [label="gini = 0.0\nsamples = 1\nvalue = [0, 1]\nclass = 1", fillcolor="#399de5"] ;
35 -> 51 ;
52 [label="OperatingSystems <= 1.5\ngini = 0.44\nsamples = 8\nvalue = [8, 4]\nclass = 0", fillcolor="#f2c09c"] ;
34 -> 52 ;
53 [label="gini = 0.0\nsamples = 4\nvalue = [6, 0]\nclass = 0", fillcolor="#e58139"] ;
52 -> 53 ;
54 [label="BounceRates <= 622.0\ngini = 0.44\nsamples = 4\nvalue = [2, 4]\nclass = 1", fillcolor="#9ccef2"] ;
52 -> 54 ;
55 [label="gini = 0.0\nsamples = 1\nvalue = [0, 3]\nclass = 1", fillcolor="#399de5"] ;
54 -> 55 ;
56 [label="TrafficType <= 5.0\ngini = 0.44\nsamples = 3\nvalue = [2, 1]\nclass = 0", fillcolor="#f2c09c"] ;
54 -> 56 ;
57 [label="gini = 0.0\nsamples = 1\nvalue = [0, 1]\nclass = 1", fillcolor="#399de5"] ;
56 -> 57 ;
58 [label="gini = 0.0\nsamples = 2\nvalue = [2, 0]\nclass = 0", fillcolor="#e58139"] ;
56 -> 58 ;
59 [label="gini = 0.0\nsamples = 49\nvalue = [86, 0]\nclass = 0", fillcolor="#e58139"] ;
33 -> 59 ;
60 [label="gini = 0.0\nsamples = 1\nvalue = [0, 1]\nclass = 1", fillcolor="#399de5"] ;
30 -> 60 ;
61 [label="Administrative_Duration <= 539.0\ngini = 0.46\nsamples = 7\nvalue = [7, 4]\nclass = 0", fillcolor="#f4c9aa"] ;
27 -> 61 ;
62 [label="gini = 0.0\nsamples = 2\nvalue = [0, 4]\nclass = 1", fillcolor="#399de5"] ;
61 -> 62 ;
63 [label="gini = 0.0\nsamples = 5\nvalue = [7, 0]\nclass = 0", fillcolor="#e58139"] ;
61 -> 63 ;
64 [label="gini = 0.0\nsamples = 1\nvalue = [0, 3]\nclass = 1", fillcolor="#399de5"] ;
26 -> 64 ;
65 [label="Administrative_Duration <= 63.0\ngini = 0.35\nsamples = 28\nvalue = [11, 37]\nclass = 1", fillcolor="#74baed"] ;
3 -> 65 ;
66 [label="gini = 0.0\nsamples = 17\nvalue = [0, 26]\nclass = 1", fillcolor="#399de5"] ;
65 -> 66 ;
67 [label="PageValues <= 1419.5\ngini = 0.5\nsamples = 11\nvalue = [11, 11]\nclass = 0", fillcolor="#ffffff"] ;
65 -> 67 ;
68 [label="ProductRelated <= 11.5\ngini = 0.26\nsamples = 5\nvalue = [11, 2]\nclass = 0", fillcolor="#ea985d"] ;
67 -> 68 ;
69 [label="gini = 0.0\nsamples = 2\nvalue = [0, 2]\nclass = 1", fillcolor="#399de5"] ;
68 -> 69 ;
70 [label="gini = 0.0\nsamples = 3\nvalue = [11, 0]\nclass = 0", fillcolor="#e58139"] ;
68 -> 70 ;
71 [label="gini = 0.0\nsamples = 6\nvalue = [0, 9]\nclass = 1", fillcolor="#399de5"] ;
67 -> 71 ;
72 [label="gini = 0.0\nsamples = 480\nvalue = [756, 0]\nclass = 0", fillcolor="#e58139"] ;
2 -> 72 ;
73 [label="Administrative_Duration <= 2.5\ngini = 0.28\nsamples = 1908\nvalue = [2548, 514]\nclass = 0", fillcolor="#ea9a61"] ;
1 -> 73 ;
74 [label="BounceRates <= 83.0\ngini = 0.22\nsamples = 831\nvalue = [1152, 166]\nclass = 0", fillcolor="#e99356"] ;
73 -> 74 ;
75 [label="PageValues <= 61.0\ngini = 0.34\nsamples = 370\nvalue = [468, 133]\nclass = 0", fillcolor="#eca571"] ;
74 -> 75 ;
76 [label="Month <= 1.5\ngini = 0.01\nsamples = 277\nvalue = [456, 2]\nclass = 0", fillcolor="#e5823a"] ;
75 -> 76 ;
77 [label="Informational_Duration <= 50.5\ngini = 0.05\nsamples = 60\nvalue = [83, 2]\nclass = 0", fillcolor="#e6843e"] ;
76 -> 77 ;
78 [label="Browser <= 3.5\ngini = 0.02\nsamples = 57\nvalue = [79, 1]\nclass = 0", fillcolor="#e5833c"] ;
77 -> 78 ;
79 [label="gini = 0.0\nsamples = 50\nvalue = [64, 0]\nclass = 0", fillcolor="#e58139"] ;
78 -> 79 ;
80 [label="Browser <= 5.5\ngini = 0.12\nsamples = 7\nvalue = [15, 1]\nclass = 0", fillcolor="#e78946"] ;
78 -> 80 ;
81 [label="TrafficType <= 0.5\ngini = 0.24\nsamples = 3\nvalue = [6, 1]\nclass = 0", fillcolor="#e9965a"] ;
80 -> 81 ;
82 [label="gini = 0.0\nsamples = 1\nvalue = [3, 0]\nclass = 0", fillcolor="#e58139"] ;
81 -> 82 ;
83 [label="VisitorType <= 1.0\ngini = 0.38\nsamples = 2\nvalue = [3, 1]\nclass = 0", fillcolor="#eeab7b"] ;
81 -> 83 ;
84 [label="gini = 0.0\nsamples = 1\nvalue = [3, 0]\nclass = 0", fillcolor="#e58139"] ;
83 -> 84 ;
85 [label="gini = 0.0\nsamples = 1\nvalue = [0, 1]\nclass = 1", fillcolor="#399de5"] ;
83 -> 85 ;
86 [label="gini = 0.0\nsamples = 4\nvalue = [9, 0]\nclass = 0", fillcolor="#e58139"] ;
80 -> 86 ;
87 [label="TrafficType <= 5.5\ngini = 0.32\nsamples = 3\nvalue = [4, 1]\nclass = 0", fillcolor="#eca06a"] ;
77 -> 87 ;
88 [label="gini = 0.0\nsamples = 2\nvalue = [4, 0]\nclass = 0", fillcolor="#e58139"] ;
87 -> 88 ;
89 [label="gini = 0.0\nsamples = 1\nvalue = [0, 1]\nclass = 1", fillcolor="#399de5"] ;
87 -> 89 ;
90 [label="gini = 0.0\nsamples = 217\nvalue = [373, 0]\nclass = 0", fillcolor="#e58139"] ;
76 -> 90 ;
91 [label="ProductRelated_Duration <= 7493.5\ngini = 0.15\nsamples = 93\nvalue = [12, 131]\nclass = 1", fillcolor="#4ba6e7"] ;
75 -> 91 ;
92 [label="Administrative <= 0.5\ngini = 0.13\nsamples = 91\nvalue = [10, 130]\nclass = 1", fillcolor="#48a5e7"] ;
91 -> 92 ;
93 [label="Region <= 1.5\ngini = 0.1\nsamples = 87\nvalue = [7, 125]\nclass = 1", fillcolor="#44a2e6"] ;
92 -> 93 ;
94 [label="gini = 0.0\nsamples = 37\nvalue = [0, 57]\nclass = 1", fillcolor="#399de5"] ;
93 -> 94 ;
95 [label="ProductRelated <= 23.5\ngini = 0.17\nsamples = 50\nvalue = [7, 68]\nclass = 1", fillcolor="#4da7e8"] ;
93 -> 95 ;
96 [label="ExitRates <= 2738.0\ngini = 0.08\nsamples = 34\nvalue = [2, 48]\nclass = 1", fillcolor="#41a1e6"] ;
95 -> 96 ;
97 [label="PageValues <= 1285.0\ngini = 0.04\nsamples = 33\nvalue = [1, 48]\nclass = 1", fillcolor="#3d9fe6"] ;
96 -> 97 ;
98 [label="TrafficType <= 0.5\ngini = 0.18\nsamples = 9\nvalue = [1, 9]\nclass = 1", fillcolor="#4fa8e8"] ;
97 -> 98 ;
99 [label="gini = 0.0\nsamples = 1\nvalue = [1, 0]\nclass = 0", fillcolor="#e58139"] ;
98 -> 99 ;
100 [label="gini = 0.0\nsamples = 8\nvalue = [0, 9]\nclass = 1", fillcolor="#399de5"] ;
98 -> 100 ;
101 [label="gini = 0.0\nsamples = 24\nvalue = [0, 39]\nclass = 1", fillcolor="#399de5"] ;
97 -> 101 ;
102 [label="gini = 0.0\nsamples = 1\nvalue = [1, 0]\nclass = 0", fillcolor="#e58139"] ;
96 -> 102 ;
103 [label="ProductRelated <= 26.5\ngini = 0.32\nsamples = 16\nvalue = [5, 20]\nclass = 1", fillcolor="#6ab6ec"] ;
95 -> 103 ;
104 [label="Region <= 2.5\ngini = 0.38\nsamples = 3\nvalue = [3, 1]\nclass = 0", fillcolor="#eeab7b"] ;
103 -> 104 ;
105 [label="gini = 0.0\nsamples = 1\nvalue = [0, 1]\nclass = 1", fillcolor="#399de5"] ;
104 -> 105 ;
106 [label="gini = 0.0\nsamples = 2\nvalue = [3, 0]\nclass = 0", fillcolor="#e58139"] ;
104 -> 106 ;
107 [label="TrafficType <= 4.5\ngini = 0.17\nsamples = 13\nvalue = [2, 19]\nclass = 1", fillcolor="#4ea7e8"] ;
103 -> 107 ;
108 [label="Weekend <= 0.5\ngini = 0.11\nsamples = 11\nvalue = [1, 16]\nclass = 1", fillcolor="#45a3e7"] ;
107 -> 108 ;
109 [label="ProductRelated_Duration <= 4830.0\ngini = 0.17\nsamples = 7\nvalue = [1, 10]\nclass = 1", fillcolor="#4da7e8"] ;
108 -> 109 ;
110 [label="ProductRelated <= 35.0\ngini = 0.38\nsamples = 3\nvalue = [1, 3]\nclass = 1", fillcolor="#7bbeee"] ;
109 -> 110 ;
111 [label="ExitRates <= 100.0\ngini = 0.5\nsamples = 2\nvalue = [1, 1]\nclass = 0", fillcolor="#ffffff"] ;
110 -> 111 ;
112 [label="gini = 0.0\nsamples = 1\nvalue = [0, 1]\nclass = 1", fillcolor="#399de5"] ;
111 -> 112 ;
113 [label="gini = 0.0\nsamples = 1\nvalue = [1, 0]\nclass = 0", fillcolor="#e58139"] ;
111 -> 113 ;
114 [label="gini = 0.0\nsamples = 1\nvalue = [0, 2]\nclass = 1", fillcolor="#399de5"] ;
110 -> 114 ;
115 [label="gini = 0.0\nsamples = 4\nvalue = [0, 7]\nclass = 1", fillcolor="#399de5"] ;
109 -> 115 ;
116 [label="gini = 0.0\nsamples = 4\nvalue = [0, 6]\nclass = 1", fillcolor="#399de5"] ;
108 -> 116 ;
117 [label="Informational <= 1.5\ngini = 0.38\nsamples = 2\nvalue = [1, 3]\nclass = 1", fillcolor="#7bbeee"] ;
107 -> 117 ;
118 [label="gini = 0.0\nsamples = 1\nvalue = [1, 0]\nclass = 0", fillcolor="#e58139"] ;
117 -> 118 ;
119 [label="gini = 0.0\nsamples = 1\nvalue = [0, 3]\nclass = 1", fillcolor="#399de5"] ;
117 -> 119 ;
120 [label="ExitRates <= 2291.5\ngini = 0.47\nsamples = 4\nvalue = [3, 5]\nclass = 1", fillcolor="#b0d8f5"] ;
92 -> 120 ;
121 [label="gini = 0.0\nsamples = 3\nvalue = [0, 5]\nclass = 1", fillcolor="#399de5"] ;
120 -> 121 ;
122 [label="gini = 0.0\nsamples = 1\nvalue = [3, 0]\nclass = 0", fillcolor="#e58139"] ;
120 -> 122 ;
123 [label="TrafficType <= 6.0\ngini = 0.44\nsamples = 2\nvalue = [2, 1]\nclass = 0", fillcolor="#f2c09c"] ;
91 -> 123 ;
124 [label="gini = 0.0\nsamples = 1\nvalue = [2, 0]\nclass = 0", fillcolor="#e58139"] ;
123 -> 124 ;
125 [label="gini = 0.0\nsamples = 1\nvalue = [0, 1]\nclass = 1", fillcolor="#399de5"] ;
123 -> 125 ;
126 [label="BounceRates <= 855.0\ngini = 0.09\nsamples = 461\nvalue = [684, 33]\nclass = 0", fillcolor="#e68743"] ;
74 -> 126 ;
127 [label="VisitorType <= 1.0\ngini = 0.13\nsamples = 303\nvalue = [443, 32]\nclass = 0", fillcolor="#e78a47"] ;
126 -> 127 ;
128 [label="OperatingSystems <= 0.5\ngini = 0.47\nsamples = 9\nvalue = [8, 5]\nclass = 0", fillcolor="#f5d0b5"] ;
127 -> 128 ;
129 [label="gini = 0.0\nsamples = 2\nvalue = [0, 2]\nclass = 1", fillcolor="#399de5"] ;
128 -> 129 ;
130 [label="BounceRates <= 319.5\ngini = 0.4\nsamples = 7\nvalue = [8, 3]\nclass = 0", fillcolor="#efb083"] ;
128 -> 130 ;
131 [label="gini = 0.0\nsamples = 3\nvalue = [6, 0]\nclass = 0", fillcolor="#e58139"] ;
130 -> 131 ;
132 [label="ProductRelated <= 16.5\ngini = 0.48\nsamples = 4\nvalue = [2, 3]\nclass = 1", fillcolor="#bddef6"] ;
130 -> 132 ;
133 [label="gini = 0.0\nsamples = 2\nvalue = [2, 0]\nclass = 0", fillcolor="#e58139"] ;
132 -> 133 ;
134 [label="gini = 0.0\nsamples = 2\nvalue = [0, 3]\nclass = 1", fillcolor="#399de5"] ;
132 -> 134 ;
135 [label="Informational_Duration <= 467.5\ngini = 0.11\nsamples = 294\nvalue = [435, 27]\nclass = 0", fillcolor="#e78945"] ;
127 -> 135 ;
136 [label="Month <= 0.5\ngini = 0.09\nsamples = 287\nvalue = [429, 22]\nclass = 0", fillcolor="#e68743"] ;
135 -> 136 ;
137 [label="Administrative <= 0.5\ngini = 0.36\nsamples = 12\nvalue = [13, 4]\nclass = 0", fillcolor="#eda876"] ;
136 -> 137 ;
138 [label="BounceRates <= 161.5\ngini = 0.23\nsamples = 11\nvalue = [13, 2]\nclass = 0", fillcolor="#e99457"] ;
137 -> 138 ;
139 [label="gini = 0.0\nsamples = 1\nvalue = [0, 1]\nclass = 1", fillcolor="#399de5"] ;
138 -> 139 ;
140 [label="ProductRelated <= 22.5\ngini = 0.13\nsamples = 10\nvalue = [13, 1]\nclass = 0", fillcolor="#e78b48"] ;
138 -> 140 ;
141 [label="BounceRates <= 830.5\ngini = 0.5\nsamples = 2\nvalue = [1, 1]\nclass = 0", fillcolor="#ffffff"] ;
140 -> 141 ;
142 [label="gini = 0.0\nsamples = 1\nvalue = [1, 0]\nclass = 0", fillcolor="#e58139"] ;
141 -> 142 ;
143 [label="gini = 0.0\nsamples = 1\nvalue = [0, 1]\nclass = 1", fillcolor="#399de5"] ;
141 -> 143 ;
144 [label="gini = 0.0\nsamples = 8\nvalue = [12, 0]\nclass = 0", fillcolor="#e58139"] ;
140 -> 144 ;
145 [label="gini = 0.0\nsamples = 1\nvalue = [0, 2]\nclass = 1", fillcolor="#399de5"] ;
137 -> 145 ;
146 [label="Browser <= 2.5\ngini = 0.08\nsamples = 275\nvalue = [416, 18]\nclass = 0", fillcolor="#e68642"] ;
136 -> 146 ;
147 [label="Informational_Duration <= 116.0\ngini = 0.06\nsamples = 215\nvalue = [334, 10]\nclass = 0", fillcolor="#e6853f"] ;
146 -> 147 ;
148 [label="Weekend <= 0.5\ngini = 0.04\nsamples = 196\nvalue = [312, 6]\nclass = 0", fillcolor="#e6833d"] ;
147 -> 148 ;
149 [label="Month <= 5.5\ngini = 0.02\nsamples = 161\nvalue = [260, 3]\nclass = 0", fillcolor="#e5823b"] ;
148 -> 149 ;
150 [label="gini = 0.0\nsamples = 86\nvalue = [142, 0]\nclass = 0", fillcolor="#e58139"] ;
149 -> 150 ;
151 [label="PageValues <= 1537.0\ngini = 0.05\nsamples = 75\nvalue = [118, 3]\nclass = 0", fillcolor="#e6843e"] ;
149 -> 151 ;
152 [label="OperatingSystems <= 2.5\ngini = 0.03\nsamples = 74\nvalue = [118, 2]\nclass = 0", fillcolor="#e5833c"] ;
151 -> 152 ;
153 [label="BounceRates <= 386.5\ngini = 0.02\nsamples = 69\nvalue = [112, 1]\nclass = 0", fillcolor="#e5823b"] ;
152 -> 153 ;
154 [label="TrafficType <= 4.5\ngini = 0.08\nsamples = 16\nvalue = [24, 1]\nclass = 0", fillcolor="#e68641"] ;
153 -> 154 ;
155 [label="gini = 0.0\nsamples = 14\nvalue = [23, 0]\nclass = 0", fillcolor="#e58139"] ;
154 -> 155 ;
156 [label="ProductRelated_Duration <= 4707.5\ngini = 0.5\nsamples = 2\nvalue = [1, 1]\nclass = 0", fillcolor="#ffffff"] ;
154 -> 156 ;
157 [label="gini = 0.0\nsamples = 1\nvalue = [1, 0]\nclass = 0", fillcolor="#e58139"] ;
156 -> 157 ;
158 [label="gini = 0.0\nsamples = 1\nvalue = [0, 1]\nclass = 1", fillcolor="#399de5"] ;
156 -> 158 ;
159 [label="gini = 0.0\nsamples = 53\nvalue = [88, 0]\nclass = 0", fillcolor="#e58139"] ;
153 -> 159 ;
160 [label="ExitRates <= 1938.0\ngini = 0.24\nsamples = 5\nvalue = [6, 1]\nclass = 0", fillcolor="#e9965a"] ;
152 -> 160 ;
161 [label="ExitRates <= 1298.0\ngini = 0.44\nsamples = 2\nvalue = [2, 1]\nclass = 0", fillcolor="#f2c09c"] ;
160 -> 161 ;
162 [label="gini = 0.0\nsamples = 1\nvalue = [2, 0]\nclass = 0", fillcolor="#e58139"] ;
161 -> 162 ;
163 [label="gini = 0.0\nsamples = 1\nvalue = [0, 1]\nclass = 1", fillcolor="#399de5"] ;
161 -> 163 ;
164 [label="gini = 0.0\nsamples = 3\nvalue = [4, 0]\nclass = 0", fillcolor="#e58139"] ;
160 -> 164 ;
165 [label="gini = 0.0\nsamples = 1\nvalue = [0, 1]\nclass = 1", fillcolor="#399de5"] ;
151 -> 165 ;
166 [label="PageValues <= 899.0\ngini = 0.1\nsamples = 35\nvalue = [52, 3]\nclass = 0", fillcolor="#e68844"] ;
148 -> 166 ;
167 [label="PageValues <= 15.5\ngini = 0.04\nsamples = 34\nvalue = [52, 1]\nclass = 0", fillcolor="#e6833d"] ;
166 -> 167 ;
168 [label="gini = 0.0\nsamples = 31\nvalue = [49, 0]\nclass = 0", fillcolor="#e58139"] ;
167 -> 168 ;
169 [label="TrafficType <= 0.5\ngini = 0.38\nsamples = 3\nvalue = [3, 1]\nclass = 0", fillcolor="#eeab7b"] ;
167 -> 169 ;
170 [label="gini = 0.0\nsamples = 1\nvalue = [0, 1]\nclass = 1", fillcolor="#399de5"] ;
169 -> 170 ;
171 [label="gini = 0.0\nsamples = 2\nvalue = [3, 0]\nclass = 0", fillcolor="#e58139"] ;
169 -> 171 ;
172 [label="gini = 0.0\nsamples = 1\nvalue = [0, 2]\nclass = 1", fillcolor="#399de5"] ;
166 -> 172 ;
173 [label="Informational_Duration <= 140.5\ngini = 0.26\nsamples = 19\nvalue = [22, 4]\nclass = 0", fillcolor="#ea985d"] ;
147 -> 173 ;
174 [label="gini = 0.0\nsamples = 1\nvalue = [0, 1]\nclass = 1", fillcolor="#399de5"] ;
173 -> 174 ;
175 [label="Region <= 0.5\ngini = 0.21\nsamples = 18\nvalue = [22, 3]\nclass = 0", fillcolor="#e99254"] ;
173 -> 175 ;
176 [label="ProductRelated_Duration <= 5545.5\ngini = 0.38\nsamples = 9\nvalue = [9, 3]\nclass = 0", fillcolor="#eeab7b"] ;
175 -> 176 ;
177 [label="gini = 0.0\nsamples = 5\nvalue = [7, 0]\nclass = 0", fillcolor="#e58139"] ;
176 -> 177 ;
178 [label="Month <= 5.5\ngini = 0.48\nsamples = 4\nvalue = [2, 3]\nclass = 1", fillcolor="#bddef6"] ;
176 -> 178 ;
179 [label="ExitRates <= 1334.5\ngini = 0.38\nsamples = 3\nvalue = [1, 3]\nclass = 1", fillcolor="#7bbeee"] ;
178 -> 179 ;
180 [label="gini = 0.0\nsamples = 2\nvalue = [0, 3]\nclass = 1", fillcolor="#399de5"] ;
179 -> 180 ;
181 [label="gini = 0.0\nsamples = 1\nvalue = [1, 0]\nclass = 0", fillcolor="#e58139"] ;
179 -> 181 ;
182 [label="gini = 0.0\nsamples = 1\nvalue = [1, 0]\nclass = 0", fillcolor="#e58139"] ;
178 -> 182 ;
183 [label="gini = 0.0\nsamples = 9\nvalue = [13, 0]\nclass = 0", fillcolor="#e58139"] ;
175 -> 183 ;
184 [label="BounceRates <= 799.0\ngini = 0.16\nsamples = 60\nvalue = [82, 8]\nclass = 0", fillcolor="#e88d4c"] ;
146 -> 184 ;
185 [label="ProductRelated_Duration <= 2082.5\ngini = 0.11\nsamples = 56\nvalue = [79, 5]\nclass = 0", fillcolor="#e78946"] ;
184 -> 185 ;
186 [label="Browser <= 6.0\ngini = 0.44\nsamples = 2\nvalue = [1, 2]\nclass = 1", fillcolor="#9ccef2"] ;
185 -> 186 ;
187 [label="gini = 0.0\nsamples = 1\nvalue = [0, 2]\nclass = 1", fillcolor="#399de5"] ;
186 -> 187 ;
188 [label="gini = 0.0\nsamples = 1\nvalue = [1, 0]\nclass = 0", fillcolor="#e58139"] ;
186 -> 188 ;
189 [label="ProductRelated_Duration <= 4863.0\ngini = 0.07\nsamples = 54\nvalue = [78, 3]\nclass = 0", fillcolor="#e68641"] ;
185 -> 189 ;
190 [label="gini = 0.0\nsamples = 24\nvalue = [37, 0]\nclass = 0", fillcolor="#e58139"] ;
189 -> 190 ;
191 [label="PageValues <= 1261.5\ngini = 0.13\nsamples = 30\nvalue = [41, 3]\nclass = 0", fillcolor="#e78a47"] ;
189 -> 191 ;
192 [label="ExitRates <= 2230.0\ngini = 0.05\nsamples = 28\nvalue = [41, 1]\nclass = 0", fillcolor="#e6843e"] ;
191 -> 192 ;
193 [label="gini = 0.0\nsamples = 15\nvalue = [24, 0]\nclass = 0", fillcolor="#e58139"] ;
192 -> 193 ;
194 [label="ExitRates <= 2261.5\ngini = 0.1\nsamples = 13\nvalue = [17, 1]\nclass = 0", fillcolor="#e78845"] ;
192 -> 194 ;
195 [label="gini = 0.0\nsamples = 1\nvalue = [0, 1]\nclass = 1", fillcolor="#399de5"] ;
194 -> 195 ;
196 [label="gini = 0.0\nsamples = 12\nvalue = [17, 0]\nclass = 0", fillcolor="#e58139"] ;
194 -> 196 ;
197 [label="gini = 0.0\nsamples = 2\nvalue = [0, 2]\nclass = 1", fillcolor="#399de5"] ;
191 -> 197 ;
198 [label="TrafficType <= 0.5\ngini = 0.5\nsamples = 4\nvalue = [3, 3]\nclass = 0", fillcolor="#ffffff"] ;
184 -> 198 ;
199 [label="gini = 0.0\nsamples = 2\nvalue = [0, 3]\nclass = 1", fillcolor="#399de5"] ;
198 -> 199 ;
200 [label="gini = 0.0\nsamples = 2\nvalue = [3, 0]\nclass = 0", fillcolor="#e58139"] ;
198 -> 200 ;
201 [label="TrafficType <= 2.5\ngini = 0.5\nsamples = 7\nvalue = [6, 5]\nclass = 0", fillcolor="#fbeade"] ;
135 -> 201 ;
202 [label="ExitRates <= 586.5\ngini = 0.24\nsamples = 5\nvalue = [6, 1]\nclass = 0", fillcolor="#e9965a"] ;
201 -> 202 ;
203 [label="gini = 0.0\nsamples = 1\nvalue = [0, 1]\nclass = 1", fillcolor="#399de5"] ;
202 -> 203 ;
204 [label="gini = 0.0\nsamples = 4\nvalue = [6, 0]\nclass = 0", fillcolor="#e58139"] ;
202 -> 204 ;
205 [label="gini = 0.0\nsamples = 2\nvalue = [0, 4]\nclass = 1", fillcolor="#399de5"] ;
201 -> 205 ;
206 [label="Month <= 0.5\ngini = 0.01\nsamples = 158\nvalue = [241, 1]\nclass = 0", fillcolor="#e5823a"] ;
126 -> 206 ;
207 [label="PageValues <= 454.5\ngini = 0.11\nsamples = 11\nvalue = [16, 1]\nclass = 0", fillcolor="#e78945"] ;
206 -> 207 ;
208 [label="gini = 0.0\nsamples = 10\nvalue = [16, 0]\nclass = 0", fillcolor="#e58139"] ;
207 -> 208 ;
209 [label="gini = 0.0\nsamples = 1\nvalue = [0, 1]\nclass = 1", fillcolor="#399de5"] ;
207 -> 209 ;
210 [label="gini = 0.0\nsamples = 147\nvalue = [225, 0]\nclass = 0", fillcolor="#e58139"] ;
206 -> 210 ;
211 [label="Month <= 1.5\ngini = 0.32\nsamples = 1077\nvalue = [1396, 348]\nclass = 0", fillcolor="#eba06a"] ;
73 -> 211 ;
212 [label="VisitorType <= 1.5\ngini = 0.37\nsamples = 298\nvalue = [369, 122]\nclass = 0", fillcolor="#eeab7a"] ;
211 -> 212 ;
213 [label="PageValues <= 179.0\ngini = 0.49\nsamples = 62\nvalue = [54, 42]\nclass = 0", fillcolor="#f9e3d3"] ;
212 -> 213 ;
214 [label="ProductRelated <= 19.5\ngini = 0.13\nsamples = 41\nvalue = [54, 4]\nclass = 0", fillcolor="#e78a48"] ;
213 -> 214 ;
215 [label="gini = 0.0\nsamples = 20\nvalue = [30, 0]\nclass = 0", fillcolor="#e58139"] ;
214 -> 215 ;
216 [label="Region <= 5.5\ngini = 0.24\nsamples = 21\nvalue = [24, 4]\nclass = 0", fillcolor="#e9965a"] ;
214 -> 216 ;
217 [label="gini = 0.0\nsamples = 15\nvalue = [21, 0]\nclass = 0", fillcolor="#e58139"] ;
216 -> 217 ;
218 [label="OperatingSystems <= 0.5\ngini = 0.49\nsamples = 6\nvalue = [3, 4]\nclass = 1", fillcolor="#cee6f8"] ;
216 -> 218 ;
219 [label="gini = 0.0\nsamples = 1\nvalue = [0, 2]\nclass = 1", fillcolor="#399de5"] ;
218 -> 219 ;
220 [label="BounceRates <= 251.0\ngini = 0.48\nsamples = 5\nvalue = [3, 2]\nclass = 0", fillcolor="#f6d5bd"] ;
218 -> 220 ;
221 [label="gini = 0.0\nsamples = 3\nvalue = [3, 0]\nclass = 0", fillcolor="#e58139"] ;
220 -> 221 ;
222 [label="gini = 0.0\nsamples = 2\nvalue = [0, 2]\nclass = 1", fillcolor="#399de5"] ;
220 -> 222 ;
223 [label="gini = 0.0\nsamples = 21\nvalue = [0, 38]\nclass = 1", fillcolor="#399de5"] ;
213 -> 223 ;
224 [label="PageValues <= 15.0\ngini = 0.32\nsamples = 236\nvalue = [315, 80]\nclass = 0", fillcolor="#eca16b"] ;
212 -> 224 ;
225 [label="ExitRates <= 239.5\ngini = 0.07\nsamples = 156\nvalue = [249, 10]\nclass = 0", fillcolor="#e68641"] ;
224 -> 225 ;
226 [label="Region <= 4.0\ngini = 0.28\nsamples = 14\nvalue = [20, 4]\nclass = 0", fillcolor="#ea9a61"] ;
225 -> 226 ;
227 [label="gini = 0.0\nsamples = 9\nvalue = [16, 0]\nclass = 0", fillcolor="#e58139"] ;
226 -> 227 ;
228 [label="ProductRelated_Duration <= 5355.0\ngini = 0.5\nsamples = 5\nvalue = [4, 4]\nclass = 0", fillcolor="#ffffff"] ;
226 -> 228 ;
229 [label="TrafficType <= 1.0\ngini = 0.32\nsamples = 3\nvalue = [1, 4]\nclass = 1", fillcolor="#6ab6ec"] ;
228 -> 229 ;
230 [label="gini = 0.0\nsamples = 1\nvalue = [1, 0]\nclass = 0", fillcolor="#e58139"] ;
229 -> 230 ;
231 [label="gini = 0.0\nsamples = 2\nvalue = [0, 4]\nclass = 1", fillcolor="#399de5"] ;
229 -> 231 ;
232 [label="gini = 0.0\nsamples = 2\nvalue = [3, 0]\nclass = 0", fillcolor="#e58139"] ;
228 -> 232 ;
233 [label="Administrative <= 2.5\ngini = 0.05\nsamples = 142\nvalue = [229, 6]\nclass = 0", fillcolor="#e6843e"] ;
225 -> 233 ;
234 [label="gini = 0.0\nsamples = 77\nvalue = [139, 0]\nclass = 0", fillcolor="#e58139"] ;
233 -> 234 ;
235 [label="ProductRelated <= 5.5\ngini = 0.12\nsamples = 65\nvalue = [90, 6]\nclass = 0", fillcolor="#e78946"] ;
233 -> 235 ;
236 [label="gini = 0.0\nsamples = 1\nvalue = [0, 2]\nclass = 1", fillcolor="#399de5"] ;
235 -> 236 ;
237 [label="ProductRelated_Duration <= 7208.0\ngini = 0.08\nsamples = 64\nvalue = [90, 4]\nclass = 0", fillcolor="#e68742"] ;
235 -> 237 ;
238 [label="TrafficType <= 1.5\ngini = 0.05\nsamples = 59\nvalue = [84, 2]\nclass = 0", fillcolor="#e6843e"] ;
237 -> 238 ;
239 [label="Informational_Duration <= 84.0\ngini = 0.07\nsamples = 37\nvalue = [53, 2]\nclass = 0", fillcolor="#e68640"] ;
238 -> 239 ;
240 [label="gini = 0.0\nsamples = 28\nvalue = [41, 0]\nclass = 0", fillcolor="#e58139"] ;
239 -> 240 ;
241 [label="ExitRates <= 1437.0\ngini = 0.24\nsamples = 9\nvalue = [12, 2]\nclass = 0", fillcolor="#e9965a"] ;
239 -> 241 ;
242 [label="ExitRates <= 1349.5\ngini = 0.48\nsamples = 3\nvalue = [3, 2]\nclass = 0", fillcolor="#f6d5bd"] ;
241 -> 242 ;
243 [label="gini = 0.0\nsamples = 2\nvalue = [3, 0]\nclass = 0", fillcolor="#e58139"] ;
242 -> 243 ;
244 [label="gini = 0.0\nsamples = 1\nvalue = [0, 2]\nclass = 1", fillcolor="#399de5"] ;
242 -> 244 ;
245 [label="gini = 0.0\nsamples = 6\nvalue = [9, 0]\nclass = 0", fillcolor="#e58139"] ;
241 -> 245 ;
246 [label="gini = 0.0\nsamples = 22\nvalue = [31, 0]\nclass = 0", fillcolor="#e58139"] ;
238 -> 246 ;
247 [label="ProductRelated_Duration <= 7402.5\ngini = 0.38\nsamples = 5\nvalue = [6, 2]\nclass = 0", fillcolor="#eeab7b"] ;
237 -> 247 ;
248 [label="gini = 0.0\nsamples = 1\nvalue = [0, 2]\nclass = 1", fillcolor="#399de5"] ;
247 -> 248 ;
249 [label="gini = 0.0\nsamples = 4\nvalue = [6, 0]\nclass = 0", fillcolor="#e58139"] ;
247 -> 249 ;
250 [label="Administrative_Duration <= 1204.5\ngini = 0.5\nsamples = 80\nvalue = [66, 70]\nclass = 1", fillcolor="#f4f9fe"] ;
224 -> 250 ;
251 [label="ProductRelated <= 80.5\ngini = 0.48\nsamples = 54\nvalue = [37, 57]\nclass = 1", fillcolor="#baddf6"] ;
250 -> 251 ;
252 [label="Informational <= 2.5\ngini = 0.44\nsamples = 48\nvalue = [28, 56]\nclass = 1", fillcolor="#9ccef2"] ;
251 -> 252 ;
253 [label="PageValues <= 1509.0\ngini = 0.47\nsamples = 43\nvalue = [27, 46]\nclass = 1", fillcolor="#add7f4"] ;
252 -> 253 ;
254 [label="PageValues <= 359.5\ngini = 0.5\nsamples = 34\nvalue = [26, 29]\nclass = 1", fillcolor="#ebf5fc"] ;
253 -> 254 ;
255 [label="Administrative <= 4.5\ngini = 0.38\nsamples = 9\nvalue = [4, 12]\nclass = 1", fillcolor="#7bbeee"] ;
254 -> 255 ;
256 [label="ProductRelated_Duration <= 7325.5\ngini = 0.24\nsamples = 7\nvalue = [2, 12]\nclass = 1", fillcolor="#5aade9"] ;
255 -> 256 ;
257 [label="BounceRates <= 99.0\ngini = 0.14\nsamples = 6\nvalue = [1, 12]\nclass = 1", fillcolor="#49a5e7"] ;
256 -> 257 ;
258 [label="gini = 0.0\nsamples = 4\nvalue = [0, 10]\nclass = 1", fillcolor="#399de5"] ;
257 -> 258 ;
259 [label="PageValues <= 287.0\ngini = 0.44\nsamples = 2\nvalue = [1, 2]\nclass = 1", fillcolor="#9ccef2"] ;
257 -> 259 ;
260 [label="gini = 0.0\nsamples = 1\nvalue = [1, 0]\nclass = 0", fillcolor="#e58139"] ;
259 -> 260 ;
261 [label="gini = 0.0\nsamples = 1\nvalue = [0, 2]\nclass = 1", fillcolor="#399de5"] ;
259 -> 261 ;
262 [label="gini = 0.0\nsamples = 1\nvalue = [1, 0]\nclass = 0", fillcolor="#e58139"] ;
256 -> 262 ;
263 [label="gini = 0.0\nsamples = 2\nvalue = [2, 0]\nclass = 0", fillcolor="#e58139"] ;
255 -> 263 ;
264 [label="Region <= 0.5\ngini = 0.49\nsamples = 25\nvalue = [22, 17]\nclass = 0", fillcolor="#f9e2d2"] ;
254 -> 264 ;
265 [label="ExitRates <= 1175.0\ngini = 0.39\nsamples = 9\nvalue = [11, 4]\nclass = 0", fillcolor="#eeaf81"] ;
264 -> 265 ;
266 [label="Weekend <= 0.5\ngini = 0.32\nsamples = 3\nvalue = [1, 4]\nclass = 1", fillcolor="#6ab6ec"] ;
265 -> 266 ;
267 [label="Administrative_Duration <= 342.0\ngini = 0.38\nsamples = 2\nvalue = [1, 3]\nclass = 1", fillcolor="#7bbeee"] ;
266 -> 267 ;
268 [label="gini = 0.0\nsamples = 1\nvalue = [0, 3]\nclass = 1", fillcolor="#399de5"] ;
267 -> 268 ;
269 [label="gini = 0.0\nsamples = 1\nvalue = [1, 0]\nclass = 0", fillcolor="#e58139"] ;
267 -> 269 ;
270 [label="gini = 0.0\nsamples = 1\nvalue = [0, 1]\nclass = 1", fillcolor="#399de5"] ;
266 -> 270 ;
271 [label="gini = 0.0\nsamples = 6\nvalue = [10, 0]\nclass = 0", fillcolor="#e58139"] ;
265 -> 271 ;
272 [label="ExitRates <= 780.0\ngini = 0.5\nsamples = 16\nvalue = [11, 13]\nclass = 1", fillcolor="#e1f0fb"] ;
264 -> 272 ;
273 [label="gini = 0.0\nsamples = 7\nvalue = [0, 12]\nclass = 1", fillcolor="#399de5"] ;
272 -> 273 ;
274 [label="Weekend <= 0.5\ngini = 0.15\nsamples = 9\nvalue = [11, 1]\nclass = 0", fillcolor="#e78c4b"] ;
272 -> 274 ;
275 [label="gini = 0.0\nsamples = 7\nvalue = [9, 0]\nclass = 0", fillcolor="#e58139"] ;
274 -> 275 ;
276 [label="OperatingSystems <= 0.5\ngini = 0.44\nsamples = 2\nvalue = [2, 1]\nclass = 0", fillcolor="#f2c09c"] ;
274 -> 276 ;
277 [label="gini = 0.0\nsamples = 1\nvalue = [0, 1]\nclass = 1", fillcolor="#399de5"] ;
276 -> 277 ;
278 [label="gini = 0.0\nsamples = 1\nvalue = [2, 0]\nclass = 0", fillcolor="#e58139"] ;
276 -> 278 ;
279 [label="Weekend <= 0.5\ngini = 0.1\nsamples = 9\nvalue = [1, 17]\nclass = 1", fillcolor="#45a3e7"] ;
253 -> 279 ;
280 [label="gini = 0.0\nsamples = 8\nvalue = [0, 17]\nclass = 1", fillcolor="#399de5"] ;
279 -> 280 ;
281 [label="gini = 0.0\nsamples = 1\nvalue = [1, 0]\nclass = 0", fillcolor="#e58139"] ;
279 -> 281 ;
282 [label="Region <= 1.0\ngini = 0.17\nsamples = 5\nvalue = [1, 10]\nclass = 1", fillcolor="#4da7e8"] ;
252 -> 282 ;
283 [label="gini = 0.0\nsamples = 3\nvalue = [0, 9]\nclass = 1", fillcolor="#399de5"] ;
282 -> 283 ;
284 [label="Month <= 0.5\ngini = 0.5\nsamples = 2\nvalue = [1, 1]\nclass = 0", fillcolor="#ffffff"] ;
282 -> 284 ;
285 [label="gini = 0.0\nsamples = 1\nvalue = [0, 1]\nclass = 1", fillcolor="#399de5"] ;
284 -> 285 ;
286 [label="gini = 0.0\nsamples = 1\nvalue = [1, 0]\nclass = 0", fillcolor="#e58139"] ;
284 -> 286 ;
287 [label="Weekend <= 0.5\ngini = 0.18\nsamples = 6\nvalue = [9, 1]\nclass = 0", fillcolor="#e88f4f"] ;
251 -> 287 ;
288 [label="gini = 0.0\nsamples = 3\nvalue = [6, 0]\nclass = 0", fillcolor="#e58139"] ;
287 -> 288 ;
289 [label="ProductRelated_Duration <= 7657.5\ngini = 0.38\nsamples = 3\nvalue = [3, 1]\nclass = 0", fillcolor="#eeab7b"] ;
287 -> 289 ;
290 [label="gini = 0.0\nsamples = 2\nvalue = [3, 0]\nclass = 0", fillcolor="#e58139"] ;
289 -> 290 ;
291 [label="gini = 0.0\nsamples = 1\nvalue = [0, 1]\nclass = 1", fillcolor="#399de5"] ;
289 -> 291 ;
292 [label="ProductRelated_Duration <= 7582.5\ngini = 0.43\nsamples = 26\nvalue = [29, 13]\nclass = 0", fillcolor="#f1b992"] ;
250 -> 292 ;
293 [label="ExitRates <= 535.0\ngini = 0.34\nsamples = 24\nvalue = [29, 8]\nclass = 0", fillcolor="#eca470"] ;
292 -> 293 ;
294 [label="Region <= 1.5\ngini = 0.48\nsamples = 5\nvalue = [4, 6]\nclass = 1", fillcolor="#bddef6"] ;
293 -> 294 ;
295 [label="gini = 0.0\nsamples = 2\nvalue = [4, 0]\nclass = 0", fillcolor="#e58139"] ;
294 -> 295 ;
296 [label="gini = 0.0\nsamples = 3\nvalue = [0, 6]\nclass = 1", fillcolor="#399de5"] ;
294 -> 296 ;
297 [label="OperatingSystems <= 2.5\ngini = 0.14\nsamples = 19\nvalue = [25, 2]\nclass = 0", fillcolor="#e78b49"] ;
293 -> 297 ;
298 [label="PageValues <= 1365.5\ngini = 0.08\nsamples = 17\nvalue = [23, 1]\nclass = 0", fillcolor="#e68642"] ;
297 -> 298 ;
299 [label="gini = 0.0\nsamples = 14\nvalue = [21, 0]\nclass = 0", fillcolor="#e58139"] ;
298 -> 299 ;
300 [label="ProductRelated_Duration <= 5739.5\ngini = 0.44\nsamples = 3\nvalue = [2, 1]\nclass = 0", fillcolor="#f2c09c"] ;
298 -> 300 ;
301 [label="gini = 0.0\nsamples = 2\nvalue = [2, 0]\nclass = 0", fillcolor="#e58139"] ;
300 -> 301 ;
302 [label="gini = 0.0\nsamples = 1\nvalue = [0, 1]\nclass = 1", fillcolor="#399de5"] ;
300 -> 302 ;
303 [label="TrafficType <= 5.0\ngini = 0.44\nsamples = 2\nvalue = [2, 1]\nclass = 0", fillcolor="#f2c09c"] ;
297 -> 303 ;
304 [label="gini = 0.0\nsamples = 1\nvalue = [2, 0]\nclass = 0", fillcolor="#e58139"] ;
303 -> 304 ;
305 [label="gini = 0.0\nsamples = 1\nvalue = [0, 1]\nclass = 1", fillcolor="#399de5"] ;
303 -> 305 ;
306 [label="gini = 0.0\nsamples = 2\nvalue = [0, 5]\nclass = 1", fillcolor="#399de5"] ;
292 -> 306 ;
307 [label="OperatingSystems <= 1.5\ngini = 0.3\nsamples = 779\nvalue = [1027, 226]\nclass = 0", fillcolor="#eb9d65"] ;
211 -> 307 ;
308 [label="ExitRates <= 2601.0\ngini = 0.32\nsamples = 612\nvalue = [786, 201]\nclass = 0", fillcolor="#eca16c"] ;
307 -> 308 ;
309 [label="ProductRelated <= 31.5\ngini = 0.35\nsamples = 556\nvalue = [702, 200]\nclass = 0", fillcolor="#eca571"] ;
308 -> 309 ;
310 [label="ExitRates <= 2549.5\ngini = 0.39\nsamples = 294\nvalue = [354, 130]\nclass = 0", fillcolor="#efaf82"] ;
309 -> 310 ;
311 [label="ProductRelated <= 26.5\ngini = 0.38\nsamples = 289\nvalue = [353, 124]\nclass = 0", fillcolor="#eead7f"] ;
310 -> 311 ;
312 [label="PageValues <= 485.5\ngini = 0.36\nsamples = 239\nvalue = [303, 92]\nclass = 0", fillcolor="#eda775"] ;
311 -> 312 ;
313 [label="Administrative_Duration <= 20.5\ngini = 0.04\nsamples = 175\nvalue = [277, 6]\nclass = 0", fillcolor="#e6843d"] ;
312 -> 313 ;
314 [label="ProductRelated_Duration <= 6426.0\ngini = 0.32\nsamples = 5\nvalue = [4, 1]\nclass = 0", fillcolor="#eca06a"] ;
313 -> 314 ;
315 [label="gini = 0.0\nsamples = 4\nvalue = [4, 0]\nclass = 0", fillcolor="#e58139"] ;
314 -> 315 ;
316 [label="gini = 0.0\nsamples = 1\nvalue = [0, 1]\nclass = 1", fillcolor="#399de5"] ;
314 -> 316 ;
317 [label="Weekend <= 0.5\ngini = 0.04\nsamples = 170\nvalue = [273, 5]\nclass = 0", fillcolor="#e5833d"] ;
313 -> 317 ;
318 [label="Administrative <= 6.5\ngini = 0.01\nsamples = 128\nvalue = [209, 1]\nclass = 0", fillcolor="#e5823a"] ;
317 -> 318 ;
319 [label="gini = 0.0\nsamples = 120\nvalue = [194, 0]\nclass = 0", fillcolor="#e58139"] ;
318 -> 319 ;
320 [label="ProductRelated_Duration <= 2456.0\ngini = 0.12\nsamples = 8\nvalue = [15, 1]\nclass = 0", fillcolor="#e78946"] ;
318 -> 320 ;
321 [label="ProductRelated_Duration <= 2258.0\ngini = 0.38\nsamples = 2\nvalue = [3, 1]\nclass = 0", fillcolor="#eeab7b"] ;
320 -> 321 ;
322 [label="gini = 0.0\nsamples = 1\nvalue = [3, 0]\nclass = 0", fillcolor="#e58139"] ;
321 -> 322 ;
323 [label="gini = 0.0\nsamples = 1\nvalue = [0, 1]\nclass = 1", fillcolor="#399de5"] ;
321 -> 323 ;
324 [label="gini = 0.0\nsamples = 6\nvalue = [12, 0]\nclass = 0", fillcolor="#e58139"] ;
320 -> 324 ;
325 [label="PageValues <= 339.0\ngini = 0.11\nsamples = 42\nvalue = [64, 4]\nclass = 0", fillcolor="#e78945"] ;
317 -> 325 ;
326 [label="gini = 0.0\nsamples = 41\nvalue = [64, 0]\nclass = 0", fillcolor="#e58139"] ;
325 -> 326 ;
327 [label="gini = 0.0\nsamples = 1\nvalue = [0, 4]\nclass = 1", fillcolor="#399de5"] ;
325 -> 327 ;
328 [label="Informational_Duration <= 389.0\ngini = 0.36\nsamples = 64\nvalue = [26, 86]\nclass = 1", fillcolor="#75bbed"] ;
312 -> 328 ;
329 [label="ProductRelated_Duration <= 7410.0\ngini = 0.31\nsamples = 58\nvalue = [19, 82]\nclass = 1", fillcolor="#67b4eb"] ;
328 -> 329 ;
330 [label="TrafficType <= 3.5\ngini = 0.28\nsamples = 57\nvalue = [17, 82]\nclass = 1", fillcolor="#62b1ea"] ;
329 -> 330 ;
331 [label="TrafficType <= 2.5\ngini = 0.16\nsamples = 47\nvalue = [7, 71]\nclass = 1", fillcolor="#4da7e8"] ;
330 -> 331 ;
332 [label="VisitorType <= 1.0\ngini = 0.1\nsamples = 34\nvalue = [3, 52]\nclass = 1", fillcolor="#44a3e6"] ;
331 -> 332 ;
333 [label="Region <= 0.5\ngini = 0.26\nsamples = 6\nvalue = [2, 11]\nclass = 1", fillcolor="#5dafea"] ;
332 -> 333 ;
334 [label="gini = 0.0\nsamples = 4\nvalue = [0, 9]\nclass = 1", fillcolor="#399de5"] ;
333 -> 334 ;
335 [label="Browser <= 3.5\ngini = 0.5\nsamples = 2\nvalue = [2, 2]\nclass = 0", fillcolor="#ffffff"] ;
333 -> 335 ;
336 [label="gini = 0.0\nsamples = 1\nvalue = [2, 0]\nclass = 0", fillcolor="#e58139"] ;
335 -> 336 ;
337 [label="gini = 0.0\nsamples = 1\nvalue = [0, 2]\nclass = 1", fillcolor="#399de5"] ;
335 -> 337 ;
338 [label="Administrative <= 4.5\ngini = 0.05\nsamples = 28\nvalue = [1, 41]\nclass = 1", fillcolor="#3e9fe6"] ;
332 -> 338 ;
339 [label="gini = 0.0\nsamples = 24\nvalue = [0, 37]\nclass = 1", fillcolor="#399de5"] ;
338 -> 339 ;
340 [label="ProductRelated_Duration <= 6030.5\ngini = 0.32\nsamples = 4\nvalue = [1, 4]\nclass = 1", fillcolor="#6ab6ec"] ;
338 -> 340 ;
341 [label="gini = 0.0\nsamples = 3\nvalue = [0, 4]\nclass = 1", fillcolor="#399de5"] ;
340 -> 341 ;
342 [label="gini = 0.0\nsamples = 1\nvalue = [1, 0]\nclass = 0", fillcolor="#e58139"] ;
340 -> 342 ;
343 [label="OperatingSystems <= 0.5\ngini = 0.29\nsamples = 13\nvalue = [4, 19]\nclass = 1", fillcolor="#63b2ea"] ;
331 -> 343 ;
344 [label="ProductRelated <= 18.5\ngini = 0.5\nsamples = 4\nvalue = [3, 3]\nclass = 0", fillcolor="#ffffff"] ;
343 -> 344 ;
345 [label="gini = 0.0\nsamples = 2\nvalue = [3, 0]\nclass = 0", fillcolor="#e58139"] ;
344 -> 345 ;
346 [label="gini = 0.0\nsamples = 2\nvalue = [0, 3]\nclass = 1", fillcolor="#399de5"] ;
344 -> 346 ;
347 [label="PageValues <= 1043.5\ngini = 0.11\nsamples = 9\nvalue = [1, 16]\nclass = 1", fillcolor="#45a3e7"] ;
343 -> 347 ;
348 [label="gini = 0.0\nsamples = 1\nvalue = [1, 0]\nclass = 0", fillcolor="#e58139"] ;
347 -> 348 ;
349 [label="gini = 0.0\nsamples = 8\nvalue = [0, 16]\nclass = 1", fillcolor="#399de5"] ;
347 -> 349 ;
350 [label="Weekend <= 0.5\ngini = 0.5\nsamples = 10\nvalue = [10, 11]\nclass = 1", fillcolor="#edf6fd"] ;
330 -> 350 ;
351 [label="PageValues <= 1030.0\ngini = 0.48\nsamples = 9\nvalue = [7, 11]\nclass = 1", fillcolor="#b7dbf6"] ;
350 -> 351 ;
352 [label="gini = 0.0\nsamples = 2\nvalue = [4, 0]\nclass = 0", fillcolor="#e58139"] ;
351 -> 352 ;
353 [label="Administrative <= 7.0\ngini = 0.34\nsamples = 7\nvalue = [3, 11]\nclass = 1", fillcolor="#6fb8ec"] ;
351 -> 353 ;
354 [label="gini = 0.0\nsamples = 6\nvalue = [0, 11]\nclass = 1", fillcolor="#399de5"] ;
353 -> 354 ;
355 [label="gini = 0.0\nsamples = 1\nvalue = [3, 0]\nclass = 0", fillcolor="#e58139"] ;
353 -> 355 ;
356 [label="gini = 0.0\nsamples = 1\nvalue = [3, 0]\nclass = 0", fillcolor="#e58139"] ;
350 -> 356 ;
357 [label="gini = 0.0\nsamples = 1\nvalue = [2, 0]\nclass = 0", fillcolor="#e58139"] ;
329 -> 357 ;
358 [label="ExitRates <= 1011.0\ngini = 0.46\nsamples = 6\nvalue = [7, 4]\nclass = 0", fillcolor="#f4c9aa"] ;
328 -> 358 ;
359 [label="gini = 0.0\nsamples = 2\nvalue = [0, 4]\nclass = 1", fillcolor="#399de5"] ;
358 -> 359 ;
360 [label="gini = 0.0\nsamples = 4\nvalue = [7, 0]\nclass = 0", fillcolor="#e58139"] ;
358 -> 360 ;
361 [label="BounceRates <= 499.5\ngini = 0.48\nsamples = 50\nvalue = [50, 32]\nclass = 0", fillcolor="#f6d2b8"] ;
311 -> 361 ;
362 [label="PageValues <= 63.0\ngini = 0.5\nsamples = 44\nvalue = [37, 32]\nclass = 0", fillcolor="#fbeee4"] ;
361 -> 362 ;
363 [label="Administrative_Duration <= 251.0\ngini = 0.06\nsamples = 23\nvalue = [30, 1]\nclass = 0", fillcolor="#e68540"] ;
362 -> 363 ;
364 [label="Informational_Duration <= 5.0\ngini = 0.2\nsamples = 8\nvalue = [8, 1]\nclass = 0", fillcolor="#e89152"] ;
363 -> 364 ;
365 [label="gini = 0.0\nsamples = 7\nvalue = [8, 0]\nclass = 0", fillcolor="#e58139"] ;
364 -> 365 ;
366 [label="gini = 0.0\nsamples = 1\nvalue = [0, 1]\nclass = 1", fillcolor="#399de5"] ;
364 -> 366 ;
367 [label="gini = 0.0\nsamples = 15\nvalue = [22, 0]\nclass = 0", fillcolor="#e58139"] ;
363 -> 367 ;
368 [label="SpecialDay <= 0.5\ngini = 0.3\nsamples = 21\nvalue = [7, 31]\nclass = 1", fillcolor="#66b3eb"] ;
362 -> 368 ;
369 [label="ExitRates <= 1686.0\ngini = 0.21\nsamples = 18\nvalue = [4, 30]\nclass = 1", fillcolor="#53aae8"] ;
368 -> 369 ;
370 [label="ProductRelated <= 28.5\ngini = 0.07\nsamples = 13\nvalue = [1, 26]\nclass = 1", fillcolor="#41a1e6"] ;
369 -> 370 ;
371 [label="ProductRelated_Duration <= 4535.0\ngini = 0.14\nsamples = 6\nvalue = [1, 12]\nclass = 1", fillcolor="#49a5e7"] ;
370 -> 371 ;
372 [label="gini = 0.0\nsamples = 1\nvalue = [1, 0]\nclass = 0", fillcolor="#e58139"] ;
371 -> 372 ;
373 [label="gini = 0.0\nsamples = 5\nvalue = [0, 12]\nclass = 1", fillcolor="#399de5"] ;
371 -> 373 ;
374 [label="gini = 0.0\nsamples = 7\nvalue = [0, 14]\nclass = 1", fillcolor="#399de5"] ;
370 -> 374 ;
375 [label="TrafficType <= 2.0\ngini = 0.49\nsamples = 5\nvalue = [3, 4]\nclass = 1", fillcolor="#cee6f8"] ;
369 -> 375 ;
376 [label="gini = 0.0\nsamples = 2\nvalue = [3, 0]\nclass = 0", fillcolor="#e58139"] ;
375 -> 376 ;
377 [label="gini = 0.0\nsamples = 3\nvalue = [0, 4]\nclass = 1", fillcolor="#399de5"] ;
375 -> 377 ;
378 [label="TrafficType <= 1.5\ngini = 0.38\nsamples = 3\nvalue = [3, 1]\nclass = 0", fillcolor="#eeab7b"] ;
368 -> 378 ;
379 [label="gini = 0.0\nsamples = 1\nvalue = [0, 1]\nclass = 1", fillcolor="#399de5"] ;
378 -> 379 ;
380 [label="gini = 0.0\nsamples = 2\nvalue = [3, 0]\nclass = 0", fillcolor="#e58139"] ;
378 -> 380 ;
381 [label="gini = 0.0\nsamples = 6\nvalue = [13, 0]\nclass = 0", fillcolor="#e58139"] ;
361 -> 381 ;
382 [label="BounceRates <= 674.5\ngini = 0.24\nsamples = 5\nvalue = [1, 6]\nclass = 1", fillcolor="#5aade9"] ;
310 -> 382 ;
383 [label="gini = 0.0\nsamples = 4\nvalue = [0, 6]\nclass = 1", fillcolor="#399de5"] ;
382 -> 383 ;
384 [label="gini = 0.0\nsamples = 1\nvalue = [1, 0]\nclass = 0", fillcolor="#e58139"] ;
382 -> 384 ;
385 [label="PageValues <= 80.0\ngini = 0.28\nsamples = 262\nvalue = [348, 70]\nclass = 0", fillcolor="#ea9a61"] ;
309 -> 385 ;
386 [label="Month <= 4.5\ngini = 0.04\nsamples = 143\nvalue = [212, 4]\nclass = 0", fillcolor="#e5833d"] ;
385 -> 386 ;
387 [label="Informational_Duration <= 536.0\ngini = 0.23\nsamples = 21\nvalue = [26, 4]\nclass = 0", fillcolor="#e99457"] ;
386 -> 387 ;
388 [label="Region <= 6.5\ngini = 0.19\nsamples = 20\nvalue = [26, 3]\nclass = 0", fillcolor="#e89050"] ;
387 -> 388 ;
389 [label="ProductRelated <= 33.0\ngini = 0.08\nsamples = 18\nvalue = [24, 1]\nclass = 0", fillcolor="#e68641"] ;
388 -> 389 ;
390 [label="ExitRates <= 373.5\ngini = 0.38\nsamples = 2\nvalue = [3, 1]\nclass = 0", fillcolor="#eeab7b"] ;
389 -> 390 ;
391 [label="gini = 0.0\nsamples = 1\nvalue = [0, 1]\nclass = 1", fillcolor="#399de5"] ;
390 -> 391 ;
392 [label="gini = 0.0\nsamples = 1\nvalue = [3, 0]\nclass = 0", fillcolor="#e58139"] ;
390 -> 392 ;
393 [label="gini = 0.0\nsamples = 16\nvalue = [21, 0]\nclass = 0", fillcolor="#e58139"] ;
389 -> 393 ;
394 [label="Browser <= 2.5\ngini = 0.5\nsamples = 2\nvalue = [2, 2]\nclass = 0", fillcolor="#ffffff"] ;
388 -> 394 ;
395 [label="gini = 0.0\nsamples = 1\nvalue = [2, 0]\nclass = 0", fillcolor="#e58139"] ;
394 -> 395 ;
396 [label="gini = 0.0\nsamples = 1\nvalue = [0, 2]\nclass = 1", fillcolor="#399de5"] ;
394 -> 396 ;
397 [label="gini = 0.0\nsamples = 1\nvalue = [0, 1]\nclass = 1", fillcolor="#399de5"] ;
387 -> 397 ;
398 [label="gini = 0.0\nsamples = 122\nvalue = [186, 0]\nclass = 0", fillcolor="#e58139"] ;
386 -> 398 ;
399 [label="Browser <= 0.5\ngini = 0.44\nsamples = 119\nvalue = [136, 66]\nclass = 0", fillcolor="#f2be99"] ;
385 -> 399 ;
400 [label="Administrative_Duration <= 760.5\ngini = 0.12\nsamples = 19\nvalue = [29, 2]\nclass = 0", fillcolor="#e78a47"] ;
399 -> 400 ;
401 [label="ProductRelated <= 108.0\ngini = 0.22\nsamples = 10\nvalue = [14, 2]\nclass = 0", fillcolor="#e99355"] ;
400 -> 401 ;
402 [label="Informational <= 1.5\ngini = 0.12\nsamples = 9\nvalue = [14, 1]\nclass = 0", fillcolor="#e78a47"] ;
401 -> 402 ;
403 [label="gini = 0.0\nsamples = 7\nvalue = [13, 0]\nclass = 0", fillcolor="#e58139"] ;
402 -> 403 ;
404 [label="Weekend <= 0.5\ngini = 0.5\nsamples = 2\nvalue = [1, 1]\nclass = 0", fillcolor="#ffffff"] ;
402 -> 404 ;
405 [label="gini = 0.0\nsamples = 1\nvalue = [1, 0]\nclass = 0", fillcolor="#e58139"] ;
404 -> 405 ;
406 [label="gini = 0.0\nsamples = 1\nvalue = [0, 1]\nclass = 1", fillcolor="#399de5"] ;
404 -> 406 ;
407 [label="gini = 0.0\nsamples = 1\nvalue = [0, 1]\nclass = 1", fillcolor="#399de5"] ;
401 -> 407 ;
408 [label="gini = 0.0\nsamples = 9\nvalue = [15, 0]\nclass = 0", fillcolor="#e58139"] ;
400 -> 408 ;
409 [label="ProductRelated_Duration <= 6652.5\ngini = 0.47\nsamples = 100\nvalue = [107, 64]\nclass = 0", fillcolor="#f5ccaf"] ;
399 -> 409 ;
410 [label="ProductRelated_Duration <= 6226.0\ngini = 0.4\nsamples = 67\nvalue = [84, 33]\nclass = 0", fillcolor="#efb287"] ;
409 -> 410 ;
411 [label="Administrative <= 2.5\ngini = 0.43\nsamples = 59\nvalue = [71, 33]\nclass = 0", fillcolor="#f1bc95"] ;
410 -> 411 ;
412 [label="ExitRates <= 1671.5\ngini = 0.44\nsamples = 16\nvalue = [9, 18]\nclass = 1", fillcolor="#9ccef2"] ;
411 -> 412 ;
413 [label="Region <= 4.0\ngini = 0.5\nsamples = 10\nvalue = [9, 8]\nclass = 0", fillcolor="#fcf1e9"] ;
412 -> 413 ;
414 [label="Informational <= 0.5\ngini = 0.2\nsamples = 6\nvalue = [8, 1]\nclass = 0", fillcolor="#e89152"] ;
413 -> 414 ;
415 [label="gini = 0.0\nsamples = 4\nvalue = [7, 0]\nclass = 0", fillcolor="#e58139"] ;
414 -> 415 ;
416 [label="Month <= 5.5\ngini = 0.5\nsamples = 2\nvalue = [1, 1]\nclass = 0", fillcolor="#ffffff"] ;
414 -> 416 ;
417 [label="gini = 0.0\nsamples = 1\nvalue = [0, 1]\nclass = 1", fillcolor="#399de5"] ;
416 -> 417 ;
418 [label="gini = 0.0\nsamples = 1\nvalue = [1, 0]\nclass = 0", fillcolor="#e58139"] ;
416 -> 418 ;
419 [label="TrafficType <= 1.5\ngini = 0.22\nsamples = 4\nvalue = [1, 7]\nclass = 1", fillcolor="#55abe9"] ;
413 -> 419 ;
420 [label="gini = 0.0\nsamples = 1\nvalue = [1, 0]\nclass = 0", fillcolor="#e58139"] ;
419 -> 420 ;
421 [label="gini = 0.0\nsamples = 3\nvalue = [0, 7]\nclass = 1", fillcolor="#399de5"] ;
419 -> 421 ;
422 [label="gini = 0.0\nsamples = 6\nvalue = [0, 10]\nclass = 1", fillcolor="#399de5"] ;
412 -> 422 ;
423 [label="PageValues <= 128.5\ngini = 0.31\nsamples = 43\nvalue = [62, 15]\nclass = 0", fillcolor="#eb9f69"] ;
411 -> 423 ;
424 [label="ProductRelated_Duration <= 3608.0\ngini = 0.44\nsamples = 2\nvalue = [1, 2]\nclass = 1", fillcolor="#9ccef2"] ;
423 -> 424 ;
425 [label="gini = 0.0\nsamples = 1\nvalue = [0, 2]\nclass = 1", fillcolor="#399de5"] ;
424 -> 425 ;
426 [label="gini = 0.0\nsamples = 1\nvalue = [1, 0]\nclass = 0", fillcolor="#e58139"] ;
424 -> 426 ;
427 [label="SpecialDay <= 1.5\ngini = 0.29\nsamples = 41\nvalue = [61, 13]\nclass = 0", fillcolor="#eb9c63"] ;
423 -> 427 ;
428 [label="ProductRelated <= 61.5\ngini = 0.18\nsamples = 32\nvalue = [54, 6]\nclass = 0", fillcolor="#e88f4f"] ;
427 -> 428 ;
429 [label="OperatingSystems <= 0.5\ngini = 0.13\nsamples = 29\nvalue = [51, 4]\nclass = 0", fillcolor="#e78b49"] ;
428 -> 429 ;
430 [label="gini = 0.0\nsamples = 1\nvalue = [0, 1]\nclass = 1", fillcolor="#399de5"] ;
429 -> 430 ;
431 [label="ProductRelated_Duration <= 5248.0\ngini = 0.1\nsamples = 28\nvalue = [51, 3]\nclass = 0", fillcolor="#e78845"] ;
429 -> 431 ;
432 [label="gini = 0.0\nsamples = 13\nvalue = [32, 0]\nclass = 0", fillcolor="#e58139"] ;
431 -> 432 ;
433 [label="ExitRates <= 236.0\ngini = 0.24\nsamples = 15\nvalue = [19, 3]\nclass = 0", fillcolor="#e99558"] ;
431 -> 433 ;
434 [label="gini = 0.0\nsamples = 1\nvalue = [0, 1]\nclass = 1", fillcolor="#399de5"] ;
433 -> 434 ;
435 [label="ProductRelated_Duration <= 5341.5\ngini = 0.17\nsamples = 14\nvalue = [19, 2]\nclass = 0", fillcolor="#e88e4e"] ;
433 -> 435 ;
436 [label="gini = 0.0\nsamples = 1\nvalue = [0, 1]\nclass = 1", fillcolor="#399de5"] ;
435 -> 436 ;
437 [label="PageValues <= 1087.0\ngini = 0.09\nsamples = 13\nvalue = [19, 1]\nclass = 0", fillcolor="#e68843"] ;
435 -> 437 ;
438 [label="gini = 0.0\nsamples = 9\nvalue = [13, 0]\nclass = 0", fillcolor="#e58139"] ;
437 -> 438 ;
439 [label="ExitRates <= 1193.0\ngini = 0.24\nsamples = 4\nvalue = [6, 1]\nclass = 0", fillcolor="#e9965a"] ;
437 -> 439 ;
440 [label="gini = 0.0\nsamples = 3\nvalue = [6, 0]\nclass = 0", fillcolor="#e58139"] ;
439 -> 440 ;
441 [label="gini = 0.0\nsamples = 1\nvalue = [0, 1]\nclass = 1", fillcolor="#399de5"] ;
439 -> 441 ;
442 [label="ProductRelated <= 73.0\ngini = 0.48\nsamples = 3\nvalue = [3, 2]\nclass = 0", fillcolor="#f6d5bd"] ;
428 -> 442 ;
443 [label="gini = 0.0\nsamples = 1\nvalue = [0, 2]\nclass = 1", fillcolor="#399de5"] ;
442 -> 443 ;
444 [label="gini = 0.0\nsamples = 2\nvalue = [3, 0]\nclass = 0", fillcolor="#e58139"] ;
442 -> 444 ;
445 [label="Administrative <= 6.5\ngini = 0.5\nsamples = 9\nvalue = [7, 7]\nclass = 0", fillcolor="#ffffff"] ;
427 -> 445 ;
446 [label="ProductRelated <= 45.5\ngini = 0.24\nsamples = 5\nvalue = [6, 1]\nclass = 0", fillcolor="#e9965a"] ;
445 -> 446 ;
447 [label="gini = 0.0\nsamples = 2\nvalue = [3, 0]\nclass = 0", fillcolor="#e58139"] ;
446 -> 447 ;
448 [label="Weekend <= 0.5\ngini = 0.38\nsamples = 3\nvalue = [3, 1]\nclass = 0", fillcolor="#eeab7b"] ;
446 -> 448 ;
449 [label="SpecialDay <= 3.0\ngini = 0.5\nsamples = 2\nvalue = [1, 1]\nclass = 0", fillcolor="#ffffff"] ;
448 -> 449 ;
450 [label="gini = 0.0\nsamples = 1\nvalue = [0, 1]\nclass = 1", fillcolor="#399de5"] ;
449 -> 450 ;
451 [label="gini = 0.0\nsamples = 1\nvalue = [1, 0]\nclass = 0", fillcolor="#e58139"] ;
449 -> 451 ;
452 [label="gini = 0.0\nsamples = 1\nvalue = [2, 0]\nclass = 0", fillcolor="#e58139"] ;
448 -> 452 ;
453 [label="BounceRates <= 233.5\ngini = 0.24\nsamples = 4\nvalue = [1, 6]\nclass = 1", fillcolor="#5aade9"] ;
445 -> 453 ;
454 [label="gini = 0.0\nsamples = 1\nvalue = [1, 0]\nclass = 0", fillcolor="#e58139"] ;
453 -> 454 ;
455 [label="gini = 0.0\nsamples = 3\nvalue = [0, 6]\nclass = 1", fillcolor="#399de5"] ;
453 -> 455 ;
456 [label="gini = 0.0\nsamples = 8\nvalue = [13, 0]\nclass = 0", fillcolor="#e58139"] ;
410 -> 456 ;
457 [label="BounceRates <= 231.5\ngini = 0.49\nsamples = 33\nvalue = [23, 31]\nclass = 1", fillcolor="#cce6f8"] ;
409 -> 457 ;
458 [label="Administrative_Duration <= 1609.5\ngini = 0.41\nsamples = 17\nvalue = [9, 22]\nclass = 1", fillcolor="#8ac5f0"] ;
457 -> 458 ;
459 [label="ProductRelated_Duration <= 7600.5\ngini = 0.37\nsamples = 16\nvalue = [7, 22]\nclass = 1", fillcolor="#78bced"] ;
458 -> 459 ;
460 [label="Administrative_Duration <= 927.0\ngini = 0.09\nsamples = 11\nvalue = [1, 19]\nclass = 1", fillcolor="#43a2e6"] ;
459 -> 460 ;
461 [label="gini = 0.0\nsamples = 8\nvalue = [0, 15]\nclass = 1", fillcolor="#399de5"] ;
460 -> 461 ;
462 [label="ProductRelated <= 60.5\ngini = 0.32\nsamples = 3\nvalue = [1, 4]\nclass = 1", fillcolor="#6ab6ec"] ;
460 -> 462 ;
463 [label="gini = 0.0\nsamples = 1\nvalue = [1, 0]\nclass = 0", fillcolor="#e58139"] ;
462 -> 463 ;
464 [label="gini = 0.0\nsamples = 2\nvalue = [0, 4]\nclass = 1", fillcolor="#399de5"] ;
462 -> 464 ;
465 [label="ProductRelated <= 64.5\ngini = 0.44\nsamples = 5\nvalue = [6, 3]\nclass = 0", fillcolor="#f2c09c"] ;
459 -> 465 ;
466 [label="gini = 0.0\nsamples = 2\nvalue = [0, 3]\nclass = 1", fillcolor="#399de5"] ;
465 -> 466 ;
467 [label="gini = 0.0\nsamples = 3\nvalue = [6, 0]\nclass = 0", fillcolor="#e58139"] ;
465 -> 467 ;
468 [label="gini = 0.0\nsamples = 1\nvalue = [2, 0]\nclass = 0", fillcolor="#e58139"] ;
458 -> 468 ;
469 [label="Administrative_Duration <= 1571.5\ngini = 0.48\nsamples = 16\nvalue = [14, 9]\nclass = 0", fillcolor="#f6d2b8"] ;
457 -> 469 ;
470 [label="Administrative_Duration <= 778.5\ngini = 0.5\nsamples = 13\nvalue = [9, 9]\nclass = 0", fillcolor="#ffffff"] ;
469 -> 470 ;
471 [label="Administrative <= 2.5\ngini = 0.4\nsamples = 7\nvalue = [8, 3]\nclass = 0", fillcolor="#efb083"] ;
470 -> 471 ;
472 [label="gini = 0.0\nsamples = 3\nvalue = [6, 0]\nclass = 0", fillcolor="#e58139"] ;
471 -> 472 ;
473 [label="ProductRelated_Duration <= 7316.0\ngini = 0.48\nsamples = 4\nvalue = [2, 3]\nclass = 1", fillcolor="#bddef6"] ;
471 -> 473 ;
474 [label="gini = 0.0\nsamples = 2\nvalue = [0, 3]\nclass = 1", fillcolor="#399de5"] ;
473 -> 474 ;
475 [label="gini = 0.0\nsamples = 2\nvalue = [2, 0]\nclass = 0", fillcolor="#e58139"] ;
473 -> 475 ;
476 [label="ProductRelated_Duration <= 7707.0\ngini = 0.24\nsamples = 6\nvalue = [1, 6]\nclass = 1", fillcolor="#5aade9"] ;
470 -> 476 ;
477 [label="gini = 0.0\nsamples = 5\nvalue = [0, 6]\nclass = 1", fillcolor="#399de5"] ;
476 -> 477 ;
478 [label="gini = 0.0\nsamples = 1\nvalue = [1, 0]\nclass = 0", fillcolor="#e58139"] ;
476 -> 478 ;
479 [label="gini = 0.0\nsamples = 3\nvalue = [5, 0]\nclass = 0", fillcolor="#e58139"] ;
469 -> 479 ;
480 [label="ProductRelated_Duration <= 2441.5\ngini = 0.02\nsamples = 56\nvalue = [84, 1]\nclass = 0", fillcolor="#e5823b"] ;
308 -> 480 ;
481 [label="ProductRelated_Duration <= 2312.5\ngini = 0.2\nsamples = 6\nvalue = [8, 1]\nclass = 0", fillcolor="#e89152"] ;
480 -> 481 ;
482 [label="gini = 0.0\nsamples = 5\nvalue = [8, 0]\nclass = 0", fillcolor="#e58139"] ;
481 -> 482 ;
483 [label="gini = 0.0\nsamples = 1\nvalue = [0, 1]\nclass = 1", fillcolor="#399de5"] ;
481 -> 483 ;
484 [label="gini = 0.0\nsamples = 50\nvalue = [76, 0]\nclass = 0", fillcolor="#e58139"] ;
480 -> 484 ;
485 [label="PageValues <= 256.0\ngini = 0.17\nsamples = 167\nvalue = [241, 25]\nclass = 0", fillcolor="#e88e4e"] ;
307 -> 485 ;
486 [label="PageValues <= 19.5\ngini = 0.05\nsamples = 135\nvalue = [210, 5]\nclass = 0", fillcolor="#e6843e"] ;
485 -> 486 ;
487 [label="Month <= 3.5\ngini = 0.01\nsamples = 119\nvalue = [187, 1]\nclass = 0", fillcolor="#e5823a"] ;
486 -> 487 ;
488 [label="Administrative_Duration <= 236.5\ngini = 0.14\nsamples = 9\nvalue = [12, 1]\nclass = 0", fillcolor="#e78c49"] ;
487 -> 488 ;
489 [label="TrafficType <= 7.0\ngini = 0.44\nsamples = 2\nvalue = [2, 1]\nclass = 0", fillcolor="#f2c09c"] ;
488 -> 489 ;
490 [label="gini = 0.0\nsamples = 1\nvalue = [0, 1]\nclass = 1", fillcolor="#399de5"] ;
489 -> 490 ;
491 [label="gini = 0.0\nsamples = 1\nvalue = [2, 0]\nclass = 0", fillcolor="#e58139"] ;
489 -> 491 ;
492 [label="gini = 0.0\nsamples = 7\nvalue = [10, 0]\nclass = 0", fillcolor="#e58139"] ;
488 -> 492 ;
493 [label="gini = 0.0\nsamples = 110\nvalue = [175, 0]\nclass = 0", fillcolor="#e58139"] ;
487 -> 493 ;
494 [label="PageValues <= 46.5\ngini = 0.25\nsamples = 16\nvalue = [23, 4]\nclass = 0", fillcolor="#ea975b"] ;
486 -> 494 ;
495 [label="gini = 0.0\nsamples = 1\nvalue = [0, 3]\nclass = 1", fillcolor="#399de5"] ;
494 -> 495 ;
496 [label="ProductRelated_Duration <= 4588.0\ngini = 0.08\nsamples = 15\nvalue = [23, 1]\nclass = 0", fillcolor="#e68642"] ;
494 -> 496 ;
497 [label="TrafficType <= 0.5\ngini = 0.5\nsamples = 2\nvalue = [1, 1]\nclass = 0", fillcolor="#ffffff"] ;
496 -> 497 ;
498 [label="gini = 0.0\nsamples = 1\nvalue = [1, 0]\nclass = 0", fillcolor="#e58139"] ;
497 -> 498 ;
499 [label="gini = 0.0\nsamples = 1\nvalue = [0, 1]\nclass = 1", fillcolor="#399de5"] ;
497 -> 499 ;
500 [label="gini = 0.0\nsamples = 13\nvalue = [22, 0]\nclass = 0", fillcolor="#e58139"] ;
496 -> 500 ;
501 [label="TrafficType <= 8.0\ngini = 0.48\nsamples = 32\nvalue = [31, 20]\nclass = 0", fillcolor="#f6d2b9"] ;
485 -> 501 ;
502 [label="Administrative_Duration <= 165.0\ngini = 0.5\nsamples = 28\nvalue = [22, 20]\nclass = 0", fillcolor="#fdf4ed"] ;
501 -> 502 ;
503 [label="gini = 0.0\nsamples = 6\nvalue = [8, 0]\nclass = 0", fillcolor="#e58139"] ;
502 -> 503 ;
504 [label="Region <= 3.5\ngini = 0.48\nsamples = 22\nvalue = [14, 20]\nclass = 1", fillcolor="#c4e2f7"] ;
502 -> 504 ;
505 [label="PageValues <= 302.5\ngini = 0.3\nsamples = 15\nvalue = [4, 18]\nclass = 1", fillcolor="#65b3eb"] ;
504 -> 505 ;
506 [label="TrafficType <= 2.0\ngini = 0.38\nsamples = 3\nvalue = [3, 1]\nclass = 0", fillcolor="#eeab7b"] ;
505 -> 506 ;
507 [label="gini = 0.0\nsamples = 2\nvalue = [3, 0]\nclass = 0", fillcolor="#e58139"] ;
506 -> 507 ;
508 [label="gini = 0.0\nsamples = 1\nvalue = [0, 1]\nclass = 1", fillcolor="#399de5"] ;
506 -> 508 ;
509 [label="TrafficType <= 0.5\ngini = 0.1\nsamples = 12\nvalue = [1, 17]\nclass = 1", fillcolor="#45a3e7"] ;
505 -> 509 ;
510 [label="Administrative_Duration <= 1109.0\ngini = 0.44\nsamples = 2\nvalue = [1, 2]\nclass = 1", fillcolor="#9ccef2"] ;
509 -> 510 ;
511 [label="gini = 0.0\nsamples = 1\nvalue = [0, 2]\nclass = 1", fillcolor="#399de5"] ;
510 -> 511 ;
512 [label="gini = 0.0\nsamples = 1\nvalue = [1, 0]\nclass = 0", fillcolor="#e58139"] ;
510 -> 512 ;
513 [label="gini = 0.0\nsamples = 10\nvalue = [0, 15]\nclass = 1", fillcolor="#399de5"] ;
509 -> 513 ;
514 [label="Administrative <= 1.5\ngini = 0.28\nsamples = 7\nvalue = [10, 2]\nclass = 0", fillcolor="#ea9a61"] ;
504 -> 514 ;
515 [label="gini = 0.0\nsamples = 1\nvalue = [0, 1]\nclass = 1", fillcolor="#399de5"] ;
514 -> 515 ;
516 [label="Weekend <= 0.5\ngini = 0.17\nsamples = 6\nvalue = [10, 1]\nclass = 0", fillcolor="#e88e4d"] ;
514 -> 516 ;
517 [label="gini = 0.0\nsamples = 5\nvalue = [10, 0]\nclass = 0", fillcolor="#e58139"] ;
516 -> 517 ;
518 [label="gini = 0.0\nsamples = 1\nvalue = [0, 1]\nclass = 1", fillcolor="#399de5"] ;
516 -> 518 ;
519 [label="gini = 0.0\nsamples = 4\nvalue = [9, 0]\nclass = 0", fillcolor="#e58139"] ;
501 -> 519 ;
520 [label="ProductRelated_Duration <= 4391.0\ngini = 0.34\nsamples = 1391\nvalue = [1769, 491]\nclass = 0", fillcolor="#eca470"] ;
0 -> 520 [labeldistance=2.5, labelangle=-45, headlabel="False"] ;
521 [label="BounceRates <= 790.5\ngini = 0.27\nsamples = 860\nvalue = [1153, 218]\nclass = 0", fillcolor="#ea995e"] ;
520 -> 521 ;
522 [label="ProductRelated_Duration <= 17.5\ngini = 0.31\nsamples = 649\nvalue = [837, 203]\nclass = 0", fillcolor="#eba069"] ;
521 -> 522 ;
523 [label="Administrative <= 0.5\ngini = 0.5\nsamples = 18\nvalue = [17, 14]\nclass = 0", fillcolor="#fae9dc"] ;
522 -> 523 ;
524 [label="gini = 0.0\nsamples = 5\nvalue = [8, 0]\nclass = 0", fillcolor="#e58139"] ;
523 -> 524 ;
525 [label="Informational <= 1.5\ngini = 0.48\nsamples = 13\nvalue = [9, 14]\nclass = 1", fillcolor="#b8dcf6"] ;
523 -> 525 ;
526 [label="Browser <= 0.5\ngini = 0.5\nsamples = 12\nvalue = [9, 11]\nclass = 1", fillcolor="#dbedfa"] ;
525 -> 526 ;
527 [label="gini = 0.0\nsamples = 4\nvalue = [0, 6]\nclass = 1", fillcolor="#399de5"] ;
526 -> 527 ;
528 [label="Weekend <= 0.5\ngini = 0.46\nsamples = 8\nvalue = [9, 5]\nclass = 0", fillcolor="#f3c7a7"] ;
526 -> 528 ;
529 [label="Administrative_Duration <= 596.0\ngini = 0.49\nsamples = 5\nvalue = [4, 5]\nclass = 1", fillcolor="#d7ebfa"] ;
528 -> 529 ;
530 [label="OperatingSystems <= 1.5\ngini = 0.44\nsamples = 4\nvalue = [4, 2]\nclass = 0", fillcolor="#f2c09c"] ;
529 -> 530 ;
531 [label="VisitorType <= 1.0\ngini = 0.48\nsamples = 3\nvalue = [3, 2]\nclass = 0", fillcolor="#f6d5bd"] ;
530 -> 531 ;
532 [label="gini = 0.0\nsamples = 2\nvalue = [3, 0]\nclass = 0", fillcolor="#e58139"] ;
531 -> 532 ;
533 [label="gini = 0.0\nsamples = 1\nvalue = [0, 2]\nclass = 1", fillcolor="#399de5"] ;
531 -> 533 ;
534 [label="gini = 0.0\nsamples = 1\nvalue = [1, 0]\nclass = 0", fillcolor="#e58139"] ;
530 -> 534 ;
535 [label="gini = 0.0\nsamples = 1\nvalue = [0, 3]\nclass = 1", fillcolor="#399de5"] ;
529 -> 535 ;
536 [label="gini = 0.0\nsamples = 3\nvalue = [5, 0]\nclass = 0", fillcolor="#e58139"] ;
528 -> 536 ;
537 [label="gini = 0.0\nsamples = 1\nvalue = [0, 3]\nclass = 1", fillcolor="#399de5"] ;
525 -> 537 ;
538 [label="PageValues <= 12.5\ngini = 0.3\nsamples = 631\nvalue = [820, 189]\nclass = 0", fillcolor="#eb9e67"] ;
522 -> 538 ;
539 [label="ProductRelated <= 3.5\ngini = 0.11\nsamples = 517\nvalue = [779, 47]\nclass = 0", fillcolor="#e78945"] ;
538 -> 539 ;
540 [label="Region <= 0.5\ngini = 0.28\nsamples = 56\nvalue = [80, 16]\nclass = 0", fillcolor="#ea9a61"] ;
539 -> 540 ;
541 [label="TrafficType <= 1.5\ngini = 0.09\nsamples = 23\nvalue = [40, 2]\nclass = 0", fillcolor="#e68743"] ;
540 -> 541 ;
542 [label="Administrative <= 4.0\ngini = 0.21\nsamples = 9\nvalue = [15, 2]\nclass = 0", fillcolor="#e89253"] ;
541 -> 542 ;
543 [label="gini = 0.0\nsamples = 8\nvalue = [15, 0]\nclass = 0", fillcolor="#e58139"] ;
542 -> 543 ;
544 [label="gini = 0.0\nsamples = 1\nvalue = [0, 2]\nclass = 1", fillcolor="#399de5"] ;
542 -> 544 ;
545 [label="gini = 0.0\nsamples = 14\nvalue = [25, 0]\nclass = 0", fillcolor="#e58139"] ;
541 -> 545 ;
546 [label="Month <= 7.5\ngini = 0.38\nsamples = 33\nvalue = [40, 14]\nclass = 0", fillcolor="#eead7e"] ;
540 -> 546 ;
547 [label="ProductRelated <= 2.5\ngini = 0.46\nsamples = 23\nvalue = [25, 14]\nclass = 0", fillcolor="#f4c8a8"] ;
546 -> 547 ;
548 [label="ExitRates <= 1658.0\ngini = 0.22\nsamples = 8\nvalue = [14, 2]\nclass = 0", fillcolor="#e99355"] ;
547 -> 548 ;
549 [label="gini = 0.0\nsamples = 1\nvalue = [0, 2]\nclass = 1", fillcolor="#399de5"] ;
548 -> 549 ;
550 [label="gini = 0.0\nsamples = 7\nvalue = [14, 0]\nclass = 0", fillcolor="#e58139"] ;
548 -> 550 ;
551 [label="Region <= 2.5\ngini = 0.5\nsamples = 15\nvalue = [11, 12]\nclass = 1", fillcolor="#eff7fd"] ;
547 -> 551 ;
552 [label="Administrative_Duration <= 206.5\ngini = 0.46\nsamples = 9\nvalue = [5, 9]\nclass = 1", fillcolor="#a7d3f3"] ;
551 -> 552 ;
553 [label="Region <= 1.5\ngini = 0.5\nsamples = 7\nvalue = [5, 5]\nclass = 0", fillcolor="#ffffff"] ;
552 -> 553 ;
554 [label="Weekend <= 0.5\ngini = 0.44\nsamples = 3\nvalue = [2, 1]\nclass = 0", fillcolor="#f2c09c"] ;
553 -> 554 ;
555 [label="gini = 0.0\nsamples = 2\nvalue = [2, 0]\nclass = 0", fillcolor="#e58139"] ;
554 -> 555 ;
556 [label="gini = 0.0\nsamples = 1\nvalue = [0, 1]\nclass = 1", fillcolor="#399de5"] ;
554 -> 556 ;
557 [label="TrafficType <= 4.5\ngini = 0.49\nsamples = 4\nvalue = [3, 4]\nclass = 1", fillcolor="#cee6f8"] ;
553 -> 557 ;
558 [label="TrafficType <= 1.5\ngini = 0.48\nsamples = 3\nvalue = [3, 2]\nclass = 0", fillcolor="#f6d5bd"] ;
557 -> 558 ;
559 [label="OperatingSystems <= 2.0\ngini = 0.44\nsamples = 2\nvalue = [1, 2]\nclass = 1", fillcolor="#9ccef2"] ;
558 -> 559 ;
560 [label="gini = 0.0\nsamples = 1\nvalue = [1, 0]\nclass = 0", fillcolor="#e58139"] ;
559 -> 560 ;
561 [label="gini = 0.0\nsamples = 1\nvalue = [0, 2]\nclass = 1", fillcolor="#399de5"] ;
559 -> 561 ;
562 [label="gini = 0.0\nsamples = 1\nvalue = [2, 0]\nclass = 0", fillcolor="#e58139"] ;
558 -> 562 ;
563 [label="gini = 0.0\nsamples = 1\nvalue = [0, 2]\nclass = 1", fillcolor="#399de5"] ;
557 -> 563 ;
564 [label="gini = 0.0\nsamples = 2\nvalue = [0, 4]\nclass = 1", fillcolor="#399de5"] ;
552 -> 564 ;
565 [label="Administrative_Duration <= 255.5\ngini = 0.44\nsamples = 6\nvalue = [6, 3]\nclass = 0", fillcolor="#f2c09c"] ;
551 -> 565 ;
566 [label="gini = 0.0\nsamples = 3\nvalue = [4, 0]\nclass = 0", fillcolor="#e58139"] ;
565 -> 566 ;
567 [label="ProductRelated_Duration <= 148.0\ngini = 0.48\nsamples = 3\nvalue = [2, 3]\nclass = 1", fillcolor="#bddef6"] ;
565 -> 567 ;
568 [label="gini = 0.0\nsamples = 1\nvalue = [0, 3]\nclass = 1", fillcolor="#399de5"] ;
567 -> 568 ;
569 [label="gini = 0.0\nsamples = 2\nvalue = [2, 0]\nclass = 0", fillcolor="#e58139"] ;
567 -> 569 ;
570 [label="gini = 0.0\nsamples = 10\nvalue = [15, 0]\nclass = 0", fillcolor="#e58139"] ;
546 -> 570 ;
571 [label="Informational_Duration <= 753.0\ngini = 0.08\nsamples = 461\nvalue = [699, 31]\nclass = 0", fillcolor="#e68742"] ;
539 -> 571 ;
572 [label="BounceRates <= 781.0\ngini = 0.08\nsamples = 460\nvalue = [699, 30]\nclass = 0", fillcolor="#e68641"] ;
571 -> 572 ;
573 [label="Browser <= 2.5\ngini = 0.08\nsamples = 459\nvalue = [699, 29]\nclass = 0", fillcolor="#e68641"] ;
572 -> 573 ;
574 [label="ProductRelated <= 43.5\ngini = 0.06\nsamples = 392\nvalue = [608, 19]\nclass = 0", fillcolor="#e6853f"] ;
573 -> 574 ;
575 [label="ProductRelated_Duration <= 47.0\ngini = 0.05\nsamples = 383\nvalue = [595, 17]\nclass = 0", fillcolor="#e6853f"] ;
574 -> 575 ;
576 [label="gini = 0.0\nsamples = 1\nvalue = [0, 1]\nclass = 1", fillcolor="#399de5"] ;
575 -> 576 ;
577 [label="Informational <= 3.5\ngini = 0.05\nsamples = 382\nvalue = [595, 16]\nclass = 0", fillcolor="#e6843e"] ;
575 -> 577 ;
578 [label="ExitRates <= 1400.0\ngini = 0.05\nsamples = 374\nvalue = [579, 14]\nclass = 0", fillcolor="#e6843e"] ;
577 -> 578 ;
579 [label="Region <= 5.5\ngini = 0.01\nsamples = 188\nvalue = [286, 2]\nclass = 0", fillcolor="#e5823a"] ;
578 -> 579 ;
580 [label="gini = 0.0\nsamples = 157\nvalue = [242, 0]\nclass = 0", fillcolor="#e58139"] ;
579 -> 580 ;
581 [label="ProductRelated <= 26.5\ngini = 0.08\nsamples = 31\nvalue = [44, 2]\nclass = 0", fillcolor="#e68742"] ;
579 -> 581 ;
582 [label="VisitorType <= 1.0\ngini = 0.05\nsamples = 27\nvalue = [40, 1]\nclass = 0", fillcolor="#e6843e"] ;
581 -> 582 ;
583 [label="gini = 0.0\nsamples = 10\nvalue = [17, 0]\nclass = 0", fillcolor="#e58139"] ;
582 -> 583 ;
584 [label="Administrative_Duration <= 11.0\ngini = 0.08\nsamples = 17\nvalue = [23, 1]\nclass = 0", fillcolor="#e68642"] ;
582 -> 584 ;
585 [label="ProductRelated_Duration <= 1524.5\ngini = 0.17\nsamples = 8\nvalue = [10, 1]\nclass = 0", fillcolor="#e88e4d"] ;
584 -> 585 ;
586 [label="gini = 0.0\nsamples = 4\nvalue = [7, 0]\nclass = 0", fillcolor="#e58139"] ;
585 -> 586 ;
587 [label="ProductRelated_Duration <= 2008.5\ngini = 0.38\nsamples = 4\nvalue = [3, 1]\nclass = 0", fillcolor="#eeab7b"] ;
585 -> 587 ;
588 [label="gini = 0.0\nsamples = 1\nvalue = [0, 1]\nclass = 1", fillcolor="#399de5"] ;
587 -> 588 ;
589 [label="gini = 0.0\nsamples = 3\nvalue = [3, 0]\nclass = 0", fillcolor="#e58139"] ;
587 -> 589 ;
590 [label="gini = 0.0\nsamples = 9\nvalue = [13, 0]\nclass = 0", fillcolor="#e58139"] ;
584 -> 590 ;
591 [label="Administrative_Duration <= 196.0\ngini = 0.32\nsamples = 4\nvalue = [4, 1]\nclass = 0", fillcolor="#eca06a"] ;
581 -> 591 ;
592 [label="gini = 0.0\nsamples = 1\nvalue = [0, 1]\nclass = 1", fillcolor="#399de5"] ;
591 -> 592 ;
593 [label="gini = 0.0\nsamples = 3\nvalue = [4, 0]\nclass = 0", fillcolor="#e58139"] ;
591 -> 593 ;
594 [label="ExitRates <= 1643.0\ngini = 0.08\nsamples = 186\nvalue = [293, 12]\nclass = 0", fillcolor="#e68641"] ;
578 -> 594 ;
595 [label="Administrative <= 5.5\ngini = 0.29\nsamples = 30\nvalue = [38, 8]\nclass = 0", fillcolor="#ea9c63"] ;
594 -> 595 ;
596 [label="ProductRelated <= 7.5\ngini = 0.27\nsamples = 28\nvalue = [37, 7]\nclass = 0", fillcolor="#ea995e"] ;
595 -> 596 ;
597 [label="Weekend <= 0.5\ngini = 0.5\nsamples = 3\nvalue = [2, 2]\nclass = 0", fillcolor="#ffffff"] ;
596 -> 597 ;
598 [label="gini = 0.0\nsamples = 2\nvalue = [2, 0]\nclass = 0", fillcolor="#e58139"] ;
597 -> 598 ;
599 [label="gini = 0.0\nsamples = 1\nvalue = [0, 2]\nclass = 1", fillcolor="#399de5"] ;
597 -> 599 ;
600 [label="ProductRelated <= 16.0\ngini = 0.22\nsamples = 25\nvalue = [35, 5]\nclass = 0", fillcolor="#e99355"] ;
596 -> 600 ;
601 [label="gini = 0.0\nsamples = 15\nvalue = [23, 0]\nclass = 0", fillcolor="#e58139"] ;
600 -> 601 ;
602 [label="ExitRates <= 1504.0\ngini = 0.42\nsamples = 10\nvalue = [12, 5]\nclass = 0", fillcolor="#f0b58b"] ;
600 -> 602 ;
603 [label="BounceRates <= 597.0\ngini = 0.38\nsamples = 3\nvalue = [1, 3]\nclass = 1", fillcolor="#7bbeee"] ;
602 -> 603 ;
604 [label="gini = 0.0\nsamples = 2\nvalue = [0, 3]\nclass = 1", fillcolor="#399de5"] ;
603 -> 604 ;
605 [label="gini = 0.0\nsamples = 1\nvalue = [1, 0]\nclass = 0", fillcolor="#e58139"] ;
603 -> 605 ;
606 [label="ProductRelated_Duration <= 2573.5\ngini = 0.26\nsamples = 7\nvalue = [11, 2]\nclass = 0", fillcolor="#ea985d"] ;
602 -> 606 ;
607 [label="gini = 0.0\nsamples = 1\nvalue = [0, 2]\nclass = 1", fillcolor="#399de5"] ;
606 -> 607 ;
608 [label="gini = 0.0\nsamples = 6\nvalue = [11, 0]\nclass = 0", fillcolor="#e58139"] ;
606 -> 608 ;
609 [label="Informational_Duration <= 88.0\ngini = 0.5\nsamples = 2\nvalue = [1, 1]\nclass = 0", fillcolor="#ffffff"] ;
595 -> 609 ;
610 [label="gini = 0.0\nsamples = 1\nvalue = [0, 1]\nclass = 1", fillcolor="#399de5"] ;
609 -> 610 ;
611 [label="gini = 0.0\nsamples = 1\nvalue = [1, 0]\nclass = 0", fillcolor="#e58139"] ;
609 -> 611 ;
612 [label="Region <= 7.5\ngini = 0.03\nsamples = 156\nvalue = [255, 4]\nclass = 0", fillcolor="#e5833c"] ;
594 -> 612 ;
613 [label="ProductRelated <= 14.5\ngini = 0.02\nsamples = 146\nvalue = [242, 3]\nclass = 0", fillcolor="#e5833b"] ;
612 -> 613 ;
614 [label="ProductRelated_Duration <= 379.5\ngini = 0.04\nsamples = 93\nvalue = [145, 3]\nclass = 0", fillcolor="#e6843d"] ;
613 -> 614 ;
615 [label="ProductRelated_Duration <= 341.5\ngini = 0.12\nsamples = 17\nvalue = [28, 2]\nclass = 0", fillcolor="#e78a47"] ;
614 -> 615 ;
616 [label="gini = 0.0\nsamples = 16\nvalue = [28, 0]\nclass = 0", fillcolor="#e58139"] ;
615 -> 616 ;
617 [label="gini = 0.0\nsamples = 1\nvalue = [0, 2]\nclass = 1", fillcolor="#399de5"] ;
615 -> 617 ;
618 [label="BounceRates <= 116.0\ngini = 0.02\nsamples = 76\nvalue = [117, 1]\nclass = 0", fillcolor="#e5823b"] ;
614 -> 618 ;
619 [label="Region <= 0.5\ngini = 0.02\nsamples = 54\nvalue = [85, 1]\nclass = 0", fillcolor="#e5823b"] ;
618 -> 619 ;
620 [label="ProductRelated <= 13.5\ngini = 0.05\nsamples = 26\nvalue = [35, 1]\nclass = 0", fillcolor="#e6853f"] ;
619 -> 620 ;
621 [label="gini = 0.0\nsamples = 25\nvalue = [35, 0]\nclass = 0", fillcolor="#e58139"] ;
620 -> 621 ;
622 [label="gini = 0.0\nsamples = 1\nvalue = [0, 1]\nclass = 1", fillcolor="#399de5"] ;
620 -> 622 ;
623 [label="gini = 0.0\nsamples = 28\nvalue = [50, 0]\nclass = 0", fillcolor="#e58139"] ;
619 -> 623 ;
624 [label="gini = 0.0\nsamples = 22\nvalue = [32, 0]\nclass = 0", fillcolor="#e58139"] ;
618 -> 624 ;
625 [label="gini = 0.0\nsamples = 53\nvalue = [97, 0]\nclass = 0", fillcolor="#e58139"] ;
613 -> 625 ;
626 [label="Month <= 8.5\ngini = 0.13\nsamples = 10\nvalue = [13, 1]\nclass = 0", fillcolor="#e78b48"] ;
612 -> 626 ;
627 [label="gini = 0.0\nsamples = 8\nvalue = [12, 0]\nclass = 0", fillcolor="#e58139"] ;
626 -> 627 ;
628 [label="ProductRelated <= 15.5\ngini = 0.5\nsamples = 2\nvalue = [1, 1]\nclass = 0", fillcolor="#ffffff"] ;
626 -> 628 ;
629 [label="gini = 0.0\nsamples = 1\nvalue = [1, 0]\nclass = 0", fillcolor="#e58139"] ;
628 -> 629 ;
630 [label="gini = 0.0\nsamples = 1\nvalue = [0, 1]\nclass = 1", fillcolor="#399de5"] ;
628 -> 630 ;
631 [label="Informational <= 4.5\ngini = 0.2\nsamples = 8\nvalue = [16, 2]\nclass = 0", fillcolor="#e89152"] ;
577 -> 631 ;
632 [label="Month <= 7.5\ngini = 0.48\nsamples = 3\nvalue = [3, 2]\nclass = 0", fillcolor="#f6d5bd"] ;
631 -> 632 ;
633 [label="gini = 0.0\nsamples = 1\nvalue = [0, 2]\nclass = 1", fillcolor="#399de5"] ;
632 -> 633 ;
634 [label="gini = 0.0\nsamples = 2\nvalue = [3, 0]\nclass = 0", fillcolor="#e58139"] ;
632 -> 634 ;
635 [label="gini = 0.0\nsamples = 5\nvalue = [13, 0]\nclass = 0", fillcolor="#e58139"] ;
631 -> 635 ;
636 [label="Administrative_Duration <= 2.0\ngini = 0.23\nsamples = 9\nvalue = [13, 2]\nclass = 0", fillcolor="#e99457"] ;
574 -> 636 ;
637 [label="Informational <= 1.0\ngini = 0.48\nsamples = 3\nvalue = [3, 2]\nclass = 0", fillcolor="#f6d5bd"] ;
636 -> 637 ;
638 [label="gini = 0.0\nsamples = 2\nvalue = [3, 0]\nclass = 0", fillcolor="#e58139"] ;
637 -> 638 ;
639 [label="gini = 0.0\nsamples = 1\nvalue = [0, 2]\nclass = 1", fillcolor="#399de5"] ;
637 -> 639 ;
640 [label="gini = 0.0\nsamples = 6\nvalue = [10, 0]\nclass = 0", fillcolor="#e58139"] ;
636 -> 640 ;
641 [label="Administrative_Duration <= 127.0\ngini = 0.18\nsamples = 67\nvalue = [91, 10]\nclass = 0", fillcolor="#e88f4f"] ;
573 -> 641 ;
642 [label="ProductRelated <= 26.5\ngini = 0.03\nsamples = 41\nvalue = [60, 1]\nclass = 0", fillcolor="#e5833c"] ;
641 -> 642 ;
643 [label="gini = 0.0\nsamples = 38\nvalue = [58, 0]\nclass = 0", fillcolor="#e58139"] ;
642 -> 643 ;
644 [label="ProductRelated <= 32.5\ngini = 0.44\nsamples = 3\nvalue = [2, 1]\nclass = 0", fillcolor="#f2c09c"] ;
642 -> 644 ;
645 [label="gini = 0.0\nsamples = 1\nvalue = [0, 1]\nclass = 1", fillcolor="#399de5"] ;
644 -> 645 ;
646 [label="gini = 0.0\nsamples = 2\nvalue = [2, 0]\nclass = 0", fillcolor="#e58139"] ;
644 -> 646 ;
647 [label="ProductRelated_Duration <= 869.5\ngini = 0.35\nsamples = 26\nvalue = [31, 9]\nclass = 0", fillcolor="#eda672"] ;
641 -> 647 ;
648 [label="Region <= 0.5\ngini = 0.28\nsamples = 4\nvalue = [1, 5]\nclass = 1", fillcolor="#61b1ea"] ;
647 -> 648 ;
649 [label="gini = 0.0\nsamples = 1\nvalue = [1, 0]\nclass = 0", fillcolor="#e58139"] ;
648 -> 649 ;
650 [label="gini = 0.0\nsamples = 3\nvalue = [0, 5]\nclass = 1", fillcolor="#399de5"] ;
648 -> 650 ;
651 [label="Administrative_Duration <= 373.5\ngini = 0.21\nsamples = 22\nvalue = [30, 4]\nclass = 0", fillcolor="#e89253"] ;
647 -> 651 ;
652 [label="ExitRates <= 1608.5\ngini = 0.5\nsamples = 5\nvalue = [4, 4]\nclass = 0", fillcolor="#ffffff"] ;
651 -> 652 ;
653 [label="VisitorType <= 1.0\ngini = 0.32\nsamples = 3\nvalue = [4, 1]\nclass = 0", fillcolor="#eca06a"] ;
652 -> 653 ;
654 [label="gini = 0.0\nsamples = 1\nvalue = [0, 1]\nclass = 1", fillcolor="#399de5"] ;
653 -> 654 ;
655 [label="gini = 0.0\nsamples = 2\nvalue = [4, 0]\nclass = 0", fillcolor="#e58139"] ;
653 -> 655 ;
656 [label="gini = 0.0\nsamples = 2\nvalue = [0, 3]\nclass = 1", fillcolor="#399de5"] ;
652 -> 656 ;
657 [label="gini = 0.0\nsamples = 17\nvalue = [26, 0]\nclass = 0", fillcolor="#e58139"] ;
651 -> 657 ;
658 [label="gini = 0.0\nsamples = 1\nvalue = [0, 1]\nclass = 1", fillcolor="#399de5"] ;
572 -> 658 ;
659 [label="gini = 0.0\nsamples = 1\nvalue = [0, 1]\nclass = 1", fillcolor="#399de5"] ;
571 -> 659 ;
660 [label="Administrative_Duration <= 2.5\ngini = 0.35\nsamples = 114\nvalue = [41, 142]\nclass = 1", fillcolor="#72b9ed"] ;
538 -> 660 ;
661 [label="ExitRates <= 3007.0\ngini = 0.13\nsamples = 43\nvalue = [5, 65]\nclass = 1", fillcolor="#48a5e7"] ;
660 -> 661 ;
662 [label="ProductRelated_Duration <= 3306.5\ngini = 0.09\nsamples = 40\nvalue = [3, 63]\nclass = 1", fillcolor="#42a2e6"] ;
661 -> 662 ;
663 [label="gini = 0.0\nsamples = 27\nvalue = [0, 46]\nclass = 1", fillcolor="#399de5"] ;
662 -> 663 ;
664 [label="ExitRates <= 1628.5\ngini = 0.26\nsamples = 13\nvalue = [3, 17]\nclass = 1", fillcolor="#5caeea"] ;
662 -> 664 ;
665 [label="gini = 0.0\nsamples = 10\nvalue = [0, 13]\nclass = 1", fillcolor="#399de5"] ;
664 -> 665 ;
666 [label="ProductRelated_Duration <= 3757.0\ngini = 0.49\nsamples = 3\nvalue = [3, 4]\nclass = 1", fillcolor="#cee6f8"] ;
664 -> 666 ;
667 [label="gini = 0.0\nsamples = 2\nvalue = [3, 0]\nclass = 0", fillcolor="#e58139"] ;
666 -> 667 ;
668 [label="gini = 0.0\nsamples = 1\nvalue = [0, 4]\nclass = 1", fillcolor="#399de5"] ;
666 -> 668 ;
669 [label="Month <= 8.5\ngini = 0.5\nsamples = 3\nvalue = [2, 2]\nclass = 0", fillcolor="#ffffff"] ;
661 -> 669 ;
670 [label="gini = 0.0\nsamples = 2\nvalue = [0, 2]\nclass = 1", fillcolor="#399de5"] ;
669 -> 670 ;
671 [label="gini = 0.0\nsamples = 1\nvalue = [2, 0]\nclass = 0", fillcolor="#e58139"] ;
669 -> 671 ;
672 [label="Administrative_Duration <= 361.0\ngini = 0.43\nsamples = 71\nvalue = [36, 77]\nclass = 1", fillcolor="#96cbf1"] ;
660 -> 672 ;
673 [label="ExitRates <= 72.5\ngini = 0.5\nsamples = 18\nvalue = [18, 18]\nclass = 0", fillcolor="#ffffff"] ;
672 -> 673 ;
674 [label="ProductRelated_Duration <= 3627.0\ngini = 0.18\nsamples = 4\nvalue = [9, 1]\nclass = 0", fillcolor="#e88f4f"] ;
673 -> 674 ;
675 [label="gini = 0.0\nsamples = 3\nvalue = [9, 0]\nclass = 0", fillcolor="#e58139"] ;
674 -> 675 ;
676 [label="gini = 0.0\nsamples = 1\nvalue = [0, 1]\nclass = 1", fillcolor="#399de5"] ;
674 -> 676 ;
677 [label="ProductRelated <= 25.5\ngini = 0.45\nsamples = 14\nvalue = [9, 17]\nclass = 1", fillcolor="#a2d1f3"] ;
673 -> 677 ;
678 [label="Month <= 7.5\ngini = 0.48\nsamples = 10\nvalue = [9, 6]\nclass = 0", fillcolor="#f6d5bd"] ;
677 -> 678 ;
679 [label="PageValues <= 1179.0\ngini = 0.43\nsamples = 8\nvalue = [9, 4]\nclass = 0", fillcolor="#f1b991"] ;
678 -> 679 ;
680 [label="gini = 0.0\nsamples = 3\nvalue = [7, 0]\nclass = 0", fillcolor="#e58139"] ;
679 -> 680 ;
681 [label="ProductRelated <= 24.5\ngini = 0.44\nsamples = 5\nvalue = [2, 4]\nclass = 1", fillcolor="#9ccef2"] ;
679 -> 681 ;
682 [label="gini = 0.0\nsamples = 4\nvalue = [0, 4]\nclass = 1", fillcolor="#399de5"] ;
681 -> 682 ;
683 [label="gini = 0.0\nsamples = 1\nvalue = [2, 0]\nclass = 0", fillcolor="#e58139"] ;
681 -> 683 ;
684 [label="gini = 0.0\nsamples = 2\nvalue = [0, 2]\nclass = 1", fillcolor="#399de5"] ;
678 -> 684 ;
685 [label="gini = 0.0\nsamples = 4\nvalue = [0, 11]\nclass = 1", fillcolor="#399de5"] ;
677 -> 685 ;
686 [label="PageValues <= 1450.5\ngini = 0.36\nsamples = 53\nvalue = [18, 59]\nclass = 1", fillcolor="#75bbed"] ;
672 -> 686 ;
687 [label="ProductRelated_Duration <= 3244.0\ngini = 0.45\nsamples = 37\nvalue = [18, 35]\nclass = 1", fillcolor="#9fcff2"] ;
686 -> 687 ;
688 [label="Month <= 7.5\ngini = 0.35\nsamples = 25\nvalue = [8, 28]\nclass = 1", fillcolor="#72b9ec"] ;
687 -> 688 ;
689 [label="TrafficType <= 6.5\ngini = 0.5\nsamples = 9\nvalue = [5, 6]\nclass = 1", fillcolor="#deeffb"] ;
688 -> 689 ;
690 [label="Administrative_Duration <= 445.5\ngini = 0.41\nsamples = 6\nvalue = [5, 2]\nclass = 0", fillcolor="#efb388"] ;
689 -> 690 ;
691 [label="gini = 0.0\nsamples = 2\nvalue = [0, 2]\nclass = 1", fillcolor="#399de5"] ;
690 -> 691 ;
692 [label="gini = 0.0\nsamples = 4\nvalue = [5, 0]\nclass = 0", fillcolor="#e58139"] ;
690 -> 692 ;
693 [label="gini = 0.0\nsamples = 3\nvalue = [0, 4]\nclass = 1", fillcolor="#399de5"] ;
689 -> 693 ;
694 [label="Region <= 6.5\ngini = 0.21\nsamples = 16\nvalue = [3, 22]\nclass = 1", fillcolor="#54aae9"] ;
688 -> 694 ;
695 [label="Region <= 5.5\ngini = 0.08\nsamples = 14\nvalue = [1, 22]\nclass = 1", fillcolor="#42a1e6"] ;
694 -> 695 ;
696 [label="gini = 0.0\nsamples = 10\nvalue = [0, 18]\nclass = 1", fillcolor="#399de5"] ;
695 -> 696 ;
697 [label="ExitRates <= 1175.0\ngini = 0.32\nsamples = 4\nvalue = [1, 4]\nclass = 1", fillcolor="#6ab6ec"] ;
695 -> 697 ;
698 [label="gini = 0.0\nsamples = 1\nvalue = [1, 0]\nclass = 0", fillcolor="#e58139"] ;
697 -> 698 ;
699 [label="gini = 0.0\nsamples = 3\nvalue = [0, 4]\nclass = 1", fillcolor="#399de5"] ;
697 -> 699 ;
700 [label="gini = 0.0\nsamples = 2\nvalue = [2, 0]\nclass = 0", fillcolor="#e58139"] ;
694 -> 700 ;
701 [label="Month <= 7.5\ngini = 0.48\nsamples = 12\nvalue = [10, 7]\nclass = 0", fillcolor="#f7d9c4"] ;
687 -> 701 ;
702 [label="PageValues <= 477.5\ngini = 0.22\nsamples = 6\nvalue = [1, 7]\nclass = 1", fillcolor="#55abe9"] ;
701 -> 702 ;
703 [label="gini = 0.0\nsamples = 1\nvalue = [1, 0]\nclass = 0", fillcolor="#e58139"] ;
702 -> 703 ;
704 [label="gini = 0.0\nsamples = 5\nvalue = [0, 7]\nclass = 1", fillcolor="#399de5"] ;
702 -> 704 ;
705 [label="gini = 0.0\nsamples = 6\nvalue = [9, 0]\nclass = 0", fillcolor="#e58139"] ;
701 -> 705 ;
706 [label="gini = 0.0\nsamples = 16\nvalue = [0, 24]\nclass = 1", fillcolor="#399de5"] ;
686 -> 706 ;
707 [label="ProductRelated_Duration <= 536.5\ngini = 0.09\nsamples = 211\nvalue = [316, 15]\nclass = 0", fillcolor="#e68742"] ;
521 -> 707 ;
708 [label="ExitRates <= 3430.0\ngini = 0.02\nsamples = 108\nvalue = [168, 2]\nclass = 0", fillcolor="#e5823b"] ;
707 -> 708 ;
709 [label="gini = 0.0\nsamples = 44\nvalue = [64, 0]\nclass = 0", fillcolor="#e58139"] ;
708 -> 709 ;
710 [label="Administrative <= 0.5\ngini = 0.04\nsamples = 64\nvalue = [104, 2]\nclass = 0", fillcolor="#e6833d"] ;
708 -> 710 ;
711 [label="OperatingSystems <= 1.5\ngini = 0.02\nsamples = 62\nvalue = [103, 1]\nclass = 0", fillcolor="#e5823b"] ;
710 -> 711 ;
712 [label="VisitorType <= 1.5\ngini = 0.03\nsamples = 41\nvalue = [69, 1]\nclass = 0", fillcolor="#e5833c"] ;
711 -> 712 ;
713 [label="gini = 0.0\nsamples = 5\nvalue = [11, 0]\nclass = 0", fillcolor="#e58139"] ;
712 -> 713 ;
714 [label="ProductRelated <= 1.5\ngini = 0.03\nsamples = 36\nvalue = [58, 1]\nclass = 0", fillcolor="#e5833c"] ;
712 -> 714 ;
715 [label="Month <= 7.5\ngini = 0.04\nsamples = 25\nvalue = [44, 1]\nclass = 0", fillcolor="#e6843d"] ;
714 -> 715 ;
716 [label="gini = 0.0\nsamples = 22\nvalue = [41, 0]\nclass = 0", fillcolor="#e58139"] ;
715 -> 716 ;
717 [label="TrafficType <= 10.0\ngini = 0.38\nsamples = 3\nvalue = [3, 1]\nclass = 0", fillcolor="#eeab7b"] ;
715 -> 717 ;
718 [label="gini = 0.0\nsamples = 2\nvalue = [3, 0]\nclass = 0", fillcolor="#e58139"] ;
717 -> 718 ;
719 [label="gini = 0.0\nsamples = 1\nvalue = [0, 1]\nclass = 1", fillcolor="#399de5"] ;
717 -> 719 ;
720 [label="gini = 0.0\nsamples = 11\nvalue = [14, 0]\nclass = 0", fillcolor="#e58139"] ;
714 -> 720 ;
721 [label="gini = 0.0\nsamples = 21\nvalue = [34, 0]\nclass = 0", fillcolor="#e58139"] ;
711 -> 721 ;
722 [label="Browser <= 0.5\ngini = 0.5\nsamples = 2\nvalue = [1, 1]\nclass = 0", fillcolor="#ffffff"] ;
710 -> 722 ;
723 [label="gini = 0.0\nsamples = 1\nvalue = [1, 0]\nclass = 0", fillcolor="#e58139"] ;
722 -> 723 ;
724 [label="gini = 0.0\nsamples = 1\nvalue = [0, 1]\nclass = 1", fillcolor="#399de5"] ;
722 -> 724 ;
725 [label="TrafficType <= 15.5\ngini = 0.15\nsamples = 103\nvalue = [148, 13]\nclass = 0", fillcolor="#e78c4a"] ;
707 -> 725 ;
726 [label="PageValues <= 927.0\ngini = 0.11\nsamples = 101\nvalue = [148, 9]\nclass = 0", fillcolor="#e78945"] ;
725 -> 726 ;
727 [label="ProductRelated_Duration <= 553.5\ngini = 0.08\nsamples = 97\nvalue = [146, 6]\nclass = 0", fillcolor="#e68641"] ;
726 -> 727 ;
728 [label="gini = 0.0\nsamples = 1\nvalue = [0, 1]\nclass = 1", fillcolor="#399de5"] ;
727 -> 728 ;
729 [label="Browser <= 9.0\ngini = 0.06\nsamples = 96\nvalue = [146, 5]\nclass = 0", fillcolor="#e68540"] ;
727 -> 729 ;
730 [label="Browser <= 0.5\ngini = 0.05\nsamples = 95\nvalue = [146, 4]\nclass = 0", fillcolor="#e6843e"] ;
729 -> 730 ;
731 [label="PageValues <= 377.0\ngini = 0.17\nsamples = 21\nvalue = [28, 3]\nclass = 0", fillcolor="#e88e4e"] ;
730 -> 731 ;
732 [label="Administrative_Duration <= 42.5\ngini = 0.12\nsamples = 20\nvalue = [28, 2]\nclass = 0", fillcolor="#e78a47"] ;
731 -> 732 ;
733 [label="ExitRates <= 2955.5\ngini = 0.2\nsamples = 12\nvalue = [16, 2]\nclass = 0", fillcolor="#e89152"] ;
732 -> 733 ;
734 [label="Month <= 7.5\ngini = 0.44\nsamples = 3\nvalue = [1, 2]\nclass = 1", fillcolor="#9ccef2"] ;
733 -> 734 ;
735 [label="gini = 0.0\nsamples = 2\nvalue = [0, 2]\nclass = 1", fillcolor="#399de5"] ;
734 -> 735 ;
736 [label="gini = 0.0\nsamples = 1\nvalue = [1, 0]\nclass = 0", fillcolor="#e58139"] ;
734 -> 736 ;
737 [label="gini = 0.0\nsamples = 9\nvalue = [15, 0]\nclass = 0", fillcolor="#e58139"] ;
733 -> 737 ;
738 [label="gini = 0.0\nsamples = 8\nvalue = [12, 0]\nclass = 0", fillcolor="#e58139"] ;
732 -> 738 ;
739 [label="gini = 0.0\nsamples = 1\nvalue = [0, 1]\nclass = 1", fillcolor="#399de5"] ;
731 -> 739 ;
740 [label="ExitRates <= 2621.5\ngini = 0.02\nsamples = 74\nvalue = [118, 1]\nclass = 0", fillcolor="#e5823b"] ;
730 -> 740 ;
741 [label="Informational_Duration <= 157.0\ngini = 0.07\nsamples = 18\nvalue = [28, 1]\nclass = 0", fillcolor="#e68640"] ;
740 -> 741 ;
742 [label="gini = 0.0\nsamples = 17\nvalue = [28, 0]\nclass = 0", fillcolor="#e58139"] ;
741 -> 742 ;
743 [label="gini = 0.0\nsamples = 1\nvalue = [0, 1]\nclass = 1", fillcolor="#399de5"] ;
741 -> 743 ;
744 [label="gini = 0.0\nsamples = 56\nvalue = [90, 0]\nclass = 0", fillcolor="#e58139"] ;
740 -> 744 ;
745 [label="gini = 0.0\nsamples = 1\nvalue = [0, 1]\nclass = 1", fillcolor="#399de5"] ;
729 -> 745 ;
746 [label="Administrative_Duration <= 497.0\ngini = 0.48\nsamples = 4\nvalue = [2, 3]\nclass = 1", fillcolor="#bddef6"] ;
726 -> 746 ;
747 [label="ExitRates <= 3137.0\ngini = 0.44\nsamples = 3\nvalue = [2, 1]\nclass = 0", fillcolor="#f2c09c"] ;
746 -> 747 ;
748 [label="gini = 0.0\nsamples = 2\nvalue = [2, 0]\nclass = 0", fillcolor="#e58139"] ;
747 -> 748 ;
749 [label="gini = 0.0\nsamples = 1\nvalue = [0, 1]\nclass = 1", fillcolor="#399de5"] ;
747 -> 749 ;
750 [label="gini = 0.0\nsamples = 1\nvalue = [0, 2]\nclass = 1", fillcolor="#399de5"] ;
746 -> 750 ;
751 [label="gini = 0.0\nsamples = 2\nvalue = [0, 4]\nclass = 1", fillcolor="#399de5"] ;
725 -> 751 ;
752 [label="ExitRates <= 1310.5\ngini = 0.43\nsamples = 531\nvalue = [616, 273]\nclass = 0", fillcolor="#f1b991"] ;
520 -> 752 ;
753 [label="ExitRates <= 758.0\ngini = 0.49\nsamples = 256\nvalue = [252, 186]\nclass = 0", fillcolor="#f8decb"] ;
752 -> 753 ;
754 [label="ProductRelated <= 118.5\ngini = 0.5\nsamples = 153\nvalue = [138, 129]\nclass = 0", fillcolor="#fdf7f2"] ;
753 -> 754 ;
755 [label="Weekend <= 0.5\ngini = 0.5\nsamples = 149\nvalue = [128, 129]\nclass = 1", fillcolor="#fdfeff"] ;
754 -> 755 ;
756 [label="PageValues <= 36.5\ngini = 0.5\nsamples = 106\nvalue = [83, 99]\nclass = 1", fillcolor="#dfeffb"] ;
755 -> 756 ;
757 [label="Informational_Duration <= 417.0\ngini = 0.31\nsamples = 58\nvalue = [74, 18]\nclass = 0", fillcolor="#eba069"] ;
756 -> 757 ;
758 [label="ProductRelated <= 96.0\ngini = 0.24\nsamples = 55\nvalue = [74, 12]\nclass = 0", fillcolor="#e99559"] ;
757 -> 758 ;
759 [label="Region <= 7.5\ngini = 0.2\nsamples = 52\nvalue = [72, 9]\nclass = 0", fillcolor="#e89152"] ;
758 -> 759 ;
760 [label="ExitRates <= 722.5\ngini = 0.06\nsamples = 46\nvalue = [67, 2]\nclass = 0", fillcolor="#e6853f"] ;
759 -> 760 ;
761 [label="Administrative_Duration <= 376.5\ngini = 0.03\nsamples = 43\nvalue = [65, 1]\nclass = 0", fillcolor="#e5833c"] ;
760 -> 761 ;
762 [label="gini = 0.0\nsamples = 28\nvalue = [45, 0]\nclass = 0", fillcolor="#e58139"] ;
761 -> 762 ;
763 [label="ProductRelated_Duration <= 4546.0\ngini = 0.09\nsamples = 15\nvalue = [20, 1]\nclass = 0", fillcolor="#e68743"] ;
761 -> 763 ;
764 [label="Administrative_Duration <= 920.5\ngini = 0.5\nsamples = 2\nvalue = [1, 1]\nclass = 0", fillcolor="#ffffff"] ;
763 -> 764 ;
765 [label="gini = 0.0\nsamples = 1\nvalue = [0, 1]\nclass = 1", fillcolor="#399de5"] ;
764 -> 765 ;
766 [label="gini = 0.0\nsamples = 1\nvalue = [1, 0]\nclass = 0", fillcolor="#e58139"] ;
764 -> 766 ;
767 [label="gini = 0.0\nsamples = 13\nvalue = [19, 0]\nclass = 0", fillcolor="#e58139"] ;
763 -> 767 ;
768 [label="Administrative_Duration <= 104.5\ngini = 0.44\nsamples = 3\nvalue = [2, 1]\nclass = 0", fillcolor="#f2c09c"] ;
760 -> 768 ;
769 [label="gini = 0.0\nsamples = 1\nvalue = [1, 0]\nclass = 0", fillcolor="#e58139"] ;
768 -> 769 ;
770 [label="Administrative_Duration <= 878.0\ngini = 0.5\nsamples = 2\nvalue = [1, 1]\nclass = 0", fillcolor="#ffffff"] ;
768 -> 770 ;
771 [label="gini = 0.0\nsamples = 1\nvalue = [0, 1]\nclass = 1", fillcolor="#399de5"] ;
770 -> 771 ;
772 [label="gini = 0.0\nsamples = 1\nvalue = [1, 0]\nclass = 0", fillcolor="#e58139"] ;
770 -> 772 ;
773 [label="BounceRates <= 27.5\ngini = 0.49\nsamples = 6\nvalue = [5, 7]\nclass = 1", fillcolor="#c6e3f8"] ;
759 -> 773 ;
774 [label="VisitorType <= 1.0\ngini = 0.35\nsamples = 4\nvalue = [2, 7]\nclass = 1", fillcolor="#72b9ec"] ;
773 -> 774 ;
775 [label="gini = 0.0\nsamples = 2\nvalue = [0, 7]\nclass = 1", fillcolor="#399de5"] ;
774 -> 775 ;
776 [label="gini = 0.0\nsamples = 2\nvalue = [2, 0]\nclass = 0", fillcolor="#e58139"] ;
774 -> 776 ;
777 [label="gini = 0.0\nsamples = 2\nvalue = [3, 0]\nclass = 0", fillcolor="#e58139"] ;
773 -> 777 ;
778 [label="Region <= 1.5\ngini = 0.48\nsamples = 3\nvalue = [2, 3]\nclass = 1", fillcolor="#bddef6"] ;
758 -> 778 ;
779 [label="gini = 0.0\nsamples = 2\nvalue = [0, 3]\nclass = 1", fillcolor="#399de5"] ;
778 -> 779 ;
780 [label="gini = 0.0\nsamples = 1\nvalue = [2, 0]\nclass = 0", fillcolor="#e58139"] ;
778 -> 780 ;
781 [label="gini = 0.0\nsamples = 3\nvalue = [0, 6]\nclass = 1", fillcolor="#399de5"] ;
757 -> 781 ;
782 [label="Administrative_Duration <= 1214.0\ngini = 0.18\nsamples = 48\nvalue = [9, 81]\nclass = 1", fillcolor="#4fa8e8"] ;
756 -> 782 ;
783 [label="Informational_Duration <= 213.5\ngini = 0.1\nsamples = 40\nvalue = [4, 72]\nclass = 1", fillcolor="#44a2e6"] ;
782 -> 783 ;
784 [label="ProductRelated <= 88.5\ngini = 0.06\nsamples = 35\nvalue = [2, 64]\nclass = 1", fillcolor="#3fa0e6"] ;
783 -> 784 ;
785 [label="ProductRelated <= 23.5\ngini = 0.03\nsamples = 31\nvalue = [1, 58]\nclass = 1", fillcolor="#3c9fe5"] ;
784 -> 785 ;
786 [label="ProductRelated <= 22.0\ngini = 0.17\nsamples = 5\nvalue = [1, 10]\nclass = 1", fillcolor="#4da7e8"] ;
785 -> 786 ;
787 [label="gini = 0.0\nsamples = 4\nvalue = [0, 10]\nclass = 1", fillcolor="#399de5"] ;
786 -> 787 ;
788 [label="gini = 0.0\nsamples = 1\nvalue = [1, 0]\nclass = 0", fillcolor="#e58139"] ;
786 -> 788 ;
789 [label="gini = 0.0\nsamples = 26\nvalue = [0, 48]\nclass = 1", fillcolor="#399de5"] ;
785 -> 789 ;
790 [label="Month <= 8.5\ngini = 0.24\nsamples = 4\nvalue = [1, 6]\nclass = 1", fillcolor="#5aade9"] ;
784 -> 790 ;
791 [label="gini = 0.0\nsamples = 3\nvalue = [0, 6]\nclass = 1", fillcolor="#399de5"] ;
790 -> 791 ;
792 [label="gini = 0.0\nsamples = 1\nvalue = [1, 0]\nclass = 0", fillcolor="#e58139"] ;
790 -> 792 ;
793 [label="ExitRates <= 498.5\ngini = 0.32\nsamples = 5\nvalue = [2, 8]\nclass = 1", fillcolor="#6ab6ec"] ;
783 -> 793 ;
794 [label="Informational <= 2.5\ngini = 0.5\nsamples = 2\nvalue = [2, 2]\nclass = 0", fillcolor="#ffffff"] ;
793 -> 794 ;
795 [label="gini = 0.0\nsamples = 1\nvalue = [0, 2]\nclass = 1", fillcolor="#399de5"] ;
794 -> 795 ;
796 [label="gini = 0.0\nsamples = 1\nvalue = [2, 0]\nclass = 0", fillcolor="#e58139"] ;
794 -> 796 ;
797 [label="gini = 0.0\nsamples = 3\nvalue = [0, 6]\nclass = 1", fillcolor="#399de5"] ;
793 -> 797 ;
798 [label="Informational <= 2.0\ngini = 0.46\nsamples = 8\nvalue = [5, 9]\nclass = 1", fillcolor="#a7d3f3"] ;
782 -> 798 ;
799 [label="PageValues <= 680.5\ngini = 0.38\nsamples = 7\nvalue = [3, 9]\nclass = 1", fillcolor="#7bbeee"] ;
798 -> 799 ;
800 [label="gini = 0.0\nsamples = 2\nvalue = [2, 0]\nclass = 0", fillcolor="#e58139"] ;
799 -> 800 ;
801 [label="TrafficType <= 3.0\ngini = 0.18\nsamples = 5\nvalue = [1, 9]\nclass = 1", fillcolor="#4fa8e8"] ;
799 -> 801 ;
802 [label="gini = 0.0\nsamples = 3\nvalue = [0, 7]\nclass = 1", fillcolor="#399de5"] ;
801 -> 802 ;
803 [label="ProductRelated <= 33.5\ngini = 0.44\nsamples = 2\nvalue = [1, 2]\nclass = 1", fillcolor="#9ccef2"] ;
801 -> 803 ;
804 [label="gini = 0.0\nsamples = 1\nvalue = [0, 2]\nclass = 1", fillcolor="#399de5"] ;
803 -> 804 ;
805 [label="gini = 0.0\nsamples = 1\nvalue = [1, 0]\nclass = 0", fillcolor="#e58139"] ;
803 -> 805 ;
806 [label="gini = 0.0\nsamples = 1\nvalue = [2, 0]\nclass = 0", fillcolor="#e58139"] ;
798 -> 806 ;
807 [label="OperatingSystems <= 0.5\ngini = 0.48\nsamples = 43\nvalue = [45, 30]\nclass = 0", fillcolor="#f6d5bd"] ;
755 -> 807 ;
808 [label="Administrative <= 3.5\ngini = 0.41\nsamples = 8\nvalue = [4, 10]\nclass = 1", fillcolor="#88c4ef"] ;
807 -> 808 ;
809 [label="Region <= 1.5\ngini = 0.28\nsamples = 7\nvalue = [2, 10]\nclass = 1", fillcolor="#61b1ea"] ;
808 -> 809 ;
810 [label="Administrative_Duration <= 513.0\ngini = 0.17\nsamples = 6\nvalue = [1, 10]\nclass = 1", fillcolor="#4da7e8"] ;
809 -> 810 ;
811 [label="gini = 0.0\nsamples = 4\nvalue = [0, 8]\nclass = 1", fillcolor="#399de5"] ;
810 -> 811 ;
812 [label="VisitorType <= 1.0\ngini = 0.44\nsamples = 2\nvalue = [1, 2]\nclass = 1", fillcolor="#9ccef2"] ;
810 -> 812 ;
813 [label="gini = 0.0\nsamples = 1\nvalue = [1, 0]\nclass = 0", fillcolor="#e58139"] ;
812 -> 813 ;
814 [label="gini = 0.0\nsamples = 1\nvalue = [0, 2]\nclass = 1", fillcolor="#399de5"] ;
812 -> 814 ;
815 [label="gini = 0.0\nsamples = 1\nvalue = [1, 0]\nclass = 0", fillcolor="#e58139"] ;
809 -> 815 ;
816 [label="gini = 0.0\nsamples = 1\nvalue = [2, 0]\nclass = 0", fillcolor="#e58139"] ;
808 -> 816 ;
817 [label="PageValues <= 28.0\ngini = 0.44\nsamples = 35\nvalue = [41, 20]\nclass = 0", fillcolor="#f2be9a"] ;
807 -> 817 ;
818 [label="TrafficType <= 0.5\ngini = 0.21\nsamples = 23\nvalue = [36, 5]\nclass = 0", fillcolor="#e99254"] ;
817 -> 818 ;
819 [label="OperatingSystems <= 1.5\ngini = 0.48\nsamples = 2\nvalue = [2, 3]\nclass = 1", fillcolor="#bddef6"] ;
818 -> 819 ;
820 [label="gini = 0.0\nsamples = 1\nvalue = [0, 3]\nclass = 1", fillcolor="#399de5"] ;
819 -> 820 ;
821 [label="gini = 0.0\nsamples = 1\nvalue = [2, 0]\nclass = 0", fillcolor="#e58139"] ;
819 -> 821 ;
822 [label="ExitRates <= 490.5\ngini = 0.1\nsamples = 21\nvalue = [34, 2]\nclass = 0", fillcolor="#e78845"] ;
818 -> 822 ;
823 [label="gini = 0.0\nsamples = 15\nvalue = [25, 0]\nclass = 0", fillcolor="#e58139"] ;
822 -> 823 ;
824 [label="ExitRates <= 612.5\ngini = 0.3\nsamples = 6\nvalue = [9, 2]\nclass = 0", fillcolor="#eb9d65"] ;
822 -> 824 ;
825 [label="gini = 0.0\nsamples = 1\nvalue = [0, 2]\nclass = 1", fillcolor="#399de5"] ;
824 -> 825 ;
826 [label="gini = 0.0\nsamples = 5\nvalue = [9, 0]\nclass = 0", fillcolor="#e58139"] ;
824 -> 826 ;
827 [label="ProductRelated_Duration <= 5281.5\ngini = 0.38\nsamples = 12\nvalue = [5, 15]\nclass = 1", fillcolor="#7bbeee"] ;
817 -> 827 ;
828 [label="Administrative <= 3.0\ngini = 0.28\nsamples = 4\nvalue = [5, 1]\nclass = 0", fillcolor="#ea9a61"] ;
827 -> 828 ;
829 [label="gini = 0.0\nsamples = 1\nvalue = [0, 1]\nclass = 1", fillcolor="#399de5"] ;
828 -> 829 ;
830 [label="gini = 0.0\nsamples = 3\nvalue = [5, 0]\nclass = 0", fillcolor="#e58139"] ;
828 -> 830 ;
831 [label="gini = 0.0\nsamples = 8\nvalue = [0, 14]\nclass = 1", fillcolor="#399de5"] ;
827 -> 831 ;
832 [label="gini = 0.0\nsamples = 4\nvalue = [10, 0]\nclass = 0", fillcolor="#e58139"] ;
754 -> 832 ;
833 [label="PageValues <= 285.5\ngini = 0.44\nsamples = 103\nvalue = [114, 57]\nclass = 0", fillcolor="#f2c09c"] ;
753 -> 833 ;
834 [label="Administrative_Duration <= 8.5\ngini = 0.26\nsamples = 68\nvalue = [97, 18]\nclass = 0", fillcolor="#ea985e"] ;
833 -> 834 ;
835 [label="ProductRelated <= 76.0\ngini = 0.4\nsamples = 28\nvalue = [32, 12]\nclass = 0", fillcolor="#efb083"] ;
834 -> 835 ;
836 [label="ExitRates <= 1278.5\ngini = 0.2\nsamples = 18\nvalue = [23, 3]\nclass = 0", fillcolor="#e89153"] ;
835 -> 836 ;
837 [label="BounceRates <= 213.0\ngini = 0.08\nsamples = 17\nvalue = [23, 1]\nclass = 0", fillcolor="#e68642"] ;
836 -> 837 ;
838 [label="gini = 0.0\nsamples = 11\nvalue = [15, 0]\nclass = 0", fillcolor="#e58139"] ;
837 -> 838 ;
839 [label="Region <= 0.5\ngini = 0.2\nsamples = 6\nvalue = [8, 1]\nclass = 0", fillcolor="#e89152"] ;
837 -> 839 ;
840 [label="ExitRates <= 1010.5\ngini = 0.38\nsamples = 3\nvalue = [3, 1]\nclass = 0", fillcolor="#eeab7b"] ;
839 -> 840 ;
841 [label="gini = 0.0\nsamples = 1\nvalue = [0, 1]\nclass = 1", fillcolor="#399de5"] ;
840 -> 841 ;
842 [label="gini = 0.0\nsamples = 2\nvalue = [3, 0]\nclass = 0", fillcolor="#e58139"] ;
840 -> 842 ;
843 [label="gini = 0.0\nsamples = 3\nvalue = [5, 0]\nclass = 0", fillcolor="#e58139"] ;
839 -> 843 ;
844 [label="gini = 0.0\nsamples = 1\nvalue = [0, 2]\nclass = 1", fillcolor="#399de5"] ;
836 -> 844 ;
845 [label="BounceRates <= 314.5\ngini = 0.5\nsamples = 10\nvalue = [9, 9]\nclass = 0", fillcolor="#ffffff"] ;
835 -> 845 ;
846 [label="ProductRelated_Duration <= 7192.0\ngini = 0.38\nsamples = 7\nvalue = [9, 3]\nclass = 0", fillcolor="#eeab7b"] ;
845 -> 846 ;
847 [label="gini = 0.0\nsamples = 3\nvalue = [6, 0]\nclass = 0", fillcolor="#e58139"] ;
846 -> 847 ;
848 [label="TrafficType <= 1.5\ngini = 0.5\nsamples = 4\nvalue = [3, 3]\nclass = 0", fillcolor="#ffffff"] ;
846 -> 848 ;
849 [label="BounceRates <= 148.0\ngini = 0.38\nsamples = 3\nvalue = [3, 1]\nclass = 0", fillcolor="#eeab7b"] ;
848 -> 849 ;
850 [label="ProductRelated_Duration <= 7576.0\ngini = 0.5\nsamples = 2\nvalue = [1, 1]\nclass = 0", fillcolor="#ffffff"] ;
849 -> 850 ;
851 [label="gini = 0.0\nsamples = 1\nvalue = [0, 1]\nclass = 1", fillcolor="#399de5"] ;
850 -> 851 ;
852 [label="gini = 0.0\nsamples = 1\nvalue = [1, 0]\nclass = 0", fillcolor="#e58139"] ;
850 -> 852 ;
853 [label="gini = 0.0\nsamples = 1\nvalue = [2, 0]\nclass = 0", fillcolor="#e58139"] ;
849 -> 853 ;
854 [label="gini = 0.0\nsamples = 1\nvalue = [0, 2]\nclass = 1", fillcolor="#399de5"] ;
848 -> 854 ;
855 [label="gini = 0.0\nsamples = 3\nvalue = [0, 6]\nclass = 1", fillcolor="#399de5"] ;
845 -> 855 ;
856 [label="ExitRates <= 1200.0\ngini = 0.15\nsamples = 40\nvalue = [65, 6]\nclass = 0", fillcolor="#e78d4b"] ;
834 -> 856 ;
857 [label="ExitRates <= 1171.0\ngini = 0.06\nsamples = 34\nvalue = [60, 2]\nclass = 0", fillcolor="#e68540"] ;
856 -> 857 ;
858 [label="Region <= 2.5\ngini = 0.04\nsamples = 30\nvalue = [55, 1]\nclass = 0", fillcolor="#e5833d"] ;
857 -> 858 ;
859 [label="gini = 0.0\nsamples = 22\nvalue = [43, 0]\nclass = 0", fillcolor="#e58139"] ;
858 -> 859 ;
860 [label="ProductRelated <= 48.5\ngini = 0.14\nsamples = 8\nvalue = [12, 1]\nclass = 0", fillcolor="#e78c49"] ;
858 -> 860 ;
861 [label="gini = 0.0\nsamples = 6\nvalue = [10, 0]\nclass = 0", fillcolor="#e58139"] ;
860 -> 861 ;
862 [label="ProductRelated_Duration <= 6266.0\ngini = 0.44\nsamples = 2\nvalue = [2, 1]\nclass = 0", fillcolor="#f2c09c"] ;
860 -> 862 ;
863 [label="gini = 0.0\nsamples = 1\nvalue = [0, 1]\nclass = 1", fillcolor="#399de5"] ;
862 -> 863 ;
864 [label="gini = 0.0\nsamples = 1\nvalue = [2, 0]\nclass = 0", fillcolor="#e58139"] ;
862 -> 864 ;
865 [label="ExitRates <= 1184.5\ngini = 0.28\nsamples = 4\nvalue = [5, 1]\nclass = 0", fillcolor="#ea9a61"] ;
857 -> 865 ;
866 [label="gini = 0.0\nsamples = 1\nvalue = [0, 1]\nclass = 1", fillcolor="#399de5"] ;
865 -> 866 ;
867 [label="gini = 0.0\nsamples = 3\nvalue = [5, 0]\nclass = 0", fillcolor="#e58139"] ;
865 -> 867 ;
868 [label="BounceRates <= 245.0\ngini = 0.49\nsamples = 6\nvalue = [5, 4]\nclass = 0", fillcolor="#fae6d7"] ;
856 -> 868 ;
869 [label="gini = 0.0\nsamples = 2\nvalue = [0, 2]\nclass = 1", fillcolor="#399de5"] ;
868 -> 869 ;
870 [label="Administrative_Duration <= 1105.5\ngini = 0.41\nsamples = 4\nvalue = [5, 2]\nclass = 0", fillcolor="#efb388"] ;
868 -> 870 ;
871 [label="BounceRates <= 360.0\ngini = 0.44\nsamples = 2\nvalue = [1, 2]\nclass = 1", fillcolor="#9ccef2"] ;
870 -> 871 ;
872 [label="gini = 0.0\nsamples = 1\nvalue = [1, 0]\nclass = 0", fillcolor="#e58139"] ;
871 -> 872 ;
873 [label="gini = 0.0\nsamples = 1\nvalue = [0, 2]\nclass = 1", fillcolor="#399de5"] ;
871 -> 873 ;
874 [label="gini = 0.0\nsamples = 2\nvalue = [4, 0]\nclass = 0", fillcolor="#e58139"] ;
870 -> 874 ;
